-4.500962793827056885e-02
3.422949090600013733e-02
-2.769020572304725647e-02
2.656134665012359619e-01
-6.037953495979309082e-02
-1.465391367673873901e-01
7.594788670539855957e-01
1.570803672075271606e-02
-1.284867525100708008e-01
-4.278521239757537842e-02
1.253610700368881226e-01
9.987011551856994629e-03
-1.266154348850250244e-01
-3.791734278202056885e-01
-1.061850115656852722e-01
-3.392040431499481201e-01
-2.023465484380722046e-01
2.300259470939636230e-01
-2.340487688779830933e-01
-6.679530441761016846e-02
-1.284499885514378548e-03
-1.041315961629152298e-02
4.840379357337951660e-01
-1.623533368110656738e-01
-4.772374927997589111e-01
2.807013094425201416e-01
-2.029301524162292480e-01
5.273452494293451309e-03
-6.752719730138778687e-02
-1.008893623948097229e-01
-4.059858620166778564e-02
-1.231473460793495178e-01
3.449260815978050232e-02
-5.588537827134132385e-02
2.112951278686523438e-01
-8.083356916904449463e-02
-7.202617079019546509e-02
4.435973465442657471e-01
5.119781568646430969e-02
-2.655462622642517090e-01
1.230164989829063416e-01
5.419611930847167969e-01
-7.664699107408523560e-02
-8.980786055326461792e-02
4.090036749839782715e-01
-2.397351525723934174e-02
5.153051391243934631e-02
-4.320388659834861755e-02
2.015152275562286377e-01
8.638579249382019043e-01
-1.176066510379314423e-02
1.092523112893104553e-01
9.500927478075027466e-02
5.605190992355346680e-01
-1.511398404836654663e-01
-3.814078867435455322e-01
-3.938269615173339844e-02
-1.133624762296676636e-01
-2.734470665454864502e-01
5.959229543805122375e-02
-5.021658167243003845e-02
1.240602880716323853e-01
-1.012755483388900757e-01
4.211066663265228271e-01
2.332721650600433350e-02
1.368527417071163654e-03
1.133318617939949036e-01
-4.311570897698402405e-02
-1.382123529911041260e-01
-1.022795736789703369e-01
4.989665374159812927e-02
1.074734628200531006e-01
-1.174969300627708435e-01
1.427348405122756958e-01
-1.437757313251495361e-01
-4.266576841473579407e-02
-3.223666846752166748e-01
2.168669737875461578e-02
9.895188733935356140e-03
-4.845084995031356812e-02
-8.308403939008712769e-02
-5.864148959517478943e-02
1.934329569339752197e-01
-3.887107074260711670e-01
-3.845579177141189575e-02
1.541900932788848877e-01
-6.867594271898269653e-02
6.126120686531066895e-02
-2.847508192062377930e-01
9.731887280941009521e-02
2.738821208477020264e-01
-3.376536667346954346e-01
2.044068723917007446e-01
1.077641732990741730e-02
4.164272453635931015e-03
6.836779415607452393e-03
1.423030495643615723e-01
2.792188711464405060e-02
-2.776457183063030243e-02
-8.249624073505401611e-02
1.397254914045333862e-01
-1.326325442641973495e-02
-1.949923336505889893e-01
6.265152245759963989e-02
-9.314896911382675171e-02
-1.911611557006835938e-01
2.781696617603302002e-02
2.807811601087450981e-03
-1.945654302835464478e-01
9.360659122467041016e-02
2.522772550582885742e-01
-3.235225379467010498e-01
-4.354079067707061768e-02
4.803250357508659363e-02
-2.282796800136566162e-02
2.509520947933197021e-01
-6.974722445011138916e-02
2.673915624618530273e-01
-1.461553759872913361e-02
4.195247218012809753e-02
4.577648341655731201e-01
9.800684452056884766e-02
-1.513434108346700668e-02
4.038735926151275635e-01
-2.201651632785797119e-01
2.488715648651123047e-01
-2.012820243835449219e-01
-1.548106968402862549e-02
1.422269046306610107e-01
9.576602280139923096e-02
1.386141926050186157e-01
3.785828873515129089e-02
2.825169451534748077e-02
-2.231677025556564331e-01
-8.841716498136520386e-02
1.666699051856994629e-01
3.902685940265655518e-01
1.285047382116317749e-01
-2.125984132289886475e-01
6.456457972526550293e-01
-4.947940111160278320e-01
3.292967379093170166e-02
-1.748922020196914673e-01
1.467809081077575684e-01
-3.036073446273803711e-01
-3.853723108768463135e-01
-1.872275471687316895e-01
-1.747136563062667847e-01
-7.719220966100692749e-02
3.012922359630465508e-03
8.885314315557479858e-02
4.114459753036499023e-01
6.764380261301994324e-03
5.256791710853576660e-01
-3.534728288650512695e-02
-8.916106075048446655e-02
5.102314352989196777e-01
-1.078972369432449341e-01
1.496441569179296494e-02
2.415222823619842529e-01
-1.001821085810661316e-01
-3.786653280258178711e-01
1.987912878394126892e-02
-7.854468375444412231e-02
-3.242561817169189453e-01
-2.245967835187911987e-01
-3.621170297265052795e-02
-1.129513159394264221e-01
-1.948802033439278603e-03
2.622027397155761719e-01
-1.997213810682296753e-02
9.141561575233936310e-03
-8.280021697282791138e-02
-2.161584645509719849e-01
-4.400808811187744141e-01
6.009452342987060547e-01
-3.274143934249877930e-01
4.785042405128479004e-01
3.246836662292480469e-01
1.495113782584667206e-02
-4.145371541380882263e-02
-1.167315840721130371e-01
-2.552286684513092041e-01
-1.059563234448432922e-01
-8.137647807598114014e-02
-1.843363791704177856e-01
-5.272961035370826721e-02
-1.115705519914627075e-01
4.975517690181732178e-01
-1.745544672012329102e-01
2.100173532962799072e-01
-3.926146402955055237e-02
4.536813870072364807e-02
2.283380031585693359e-01
5.872035622596740723e-01
-4.825401678681373596e-02
4.026522338390350342e-01
-3.395964577794075012e-02
-7.287632673978805542e-02
-4.501739144325256348e-02
-7.615412026643753052e-02
-1.854407340288162231e-01
2.739119343459606171e-02
-1.778884977102279663e-01
4.836400970816612244e-02
-1.855783760547637939e-01
-3.235333412885665894e-02
1.671380996704101562e-01
-2.620026767253875732e-01
-1.489276438951492310e-01
-1.969192773103713989e-01
-6.906348466873168945e-02
7.183367758989334106e-02
-4.036295413970947266e-02
-4.602703824639320374e-02
-1.396279968321323395e-02
7.551052421331405640e-02
-3.124809265136718750e-01
-5.958214029669761658e-02
4.292727261781692505e-02
-1.312452852725982666e-01
4.175788536667823792e-02
4.671800509095191956e-02
5.097483992576599121e-01
-7.562004774808883667e-02
3.371278941631317139e-02
-1.321936398744583130e-01
3.458708822727203369e-01
-3.297569155693054199e-01
7.158754160627722740e-04
2.942583337426185608e-02
-1.443506777286529541e-01
6.496376544237136841e-02
1.915048062801361084e-02
2.725672721862792969e-01
-4.469521716237068176e-02
3.590276241302490234e-01
-1.384783238172531128e-01
-8.565870672464370728e-02
-6.837137043476104736e-02
4.885432124137878418e-02
8.131414651870727539e-02
-8.564301580190658569e-02
5.474948287010192871e-01
1.652382910251617432e-01
-1.873526871204376221e-01
-7.961308956146240234e-02
1.560897529125213623e-01
4.302169382572174072e-01
-5.796873569488525391e-02
-2.590005099773406982e-01
-8.234943449497222900e-02
6.639850139617919922e-02
-2.216592431068420410e-01
6.417943835258483887e-01
-1.843272000551223755e-01
4.041526317596435547e-01
-2.076080888509750366e-01
-1.151515245437622070e-01
-6.278034448623657227e-01
3.235867321491241455e-01
-4.205121845006942749e-02
-6.692256927490234375e-01
-2.695969641208648682e-01
-5.196183323860168457e-01
5.494329929351806641e-01
-2.876026034355163574e-01
-4.483205974102020264e-01
-3.767040744423866272e-02
2.958596348762512207e-01
1.543464791029691696e-02
5.527256131172180176e-01
1.928805559873580933e-01
1.341719925403594971e-01
7.629252225160598755e-02
-8.349934965372085571e-02
-2.456994801759719849e-01
7.485280185937881470e-02
3.679907023906707764e-01
-6.356111764907836914e-01
-4.550218582153320312e-03
-5.510289669036865234e-01
-2.741250954568386078e-02
-4.451899230480194092e-02
3.086109459400177002e-01
1.605734825134277344e-01
8.631549775600433350e-02
2.128153294324874878e-02
2.913517951965332031e-01
-5.234463810920715332e-01
-6.186267826706171036e-03
-3.285775780677795410e-01
-5.108285695314407349e-02
-4.740895628929138184e-01
-2.944073081016540527e-01
1.361403018236160278e-01
-1.880359351634979248e-01
-8.259129524230957031e-02
-3.724606931209564209e-01
-1.167198866605758667e-01
-2.884053885936737061e-01
-8.074630051851272583e-02
-1.001254618167877197e-01
-3.493666946887969971e-01
-1.130566000938415527e-01
7.946027070283889771e-02
-2.091825604438781738e-01
1.658825427293777466e-01
3.116921186447143555e-01
1.300587058067321777e-01
-6.661139894276857376e-03
-5.774992704391479492e-02
1.118621677160263062e-01
1.003425940871238708e-02
-2.006661891937255859e-01
7.657511532306671143e-02
-8.623469620943069458e-02
1.070509105920791626e-01
-7.598215341567993164e-02
-2.181193605065345764e-02
2.208120003342628479e-02
-2.147867530584335327e-01
2.972830832004547119e-01
1.226121336221694946e-01
-4.007202014327049255e-02
-1.603794842958450317e-01
-2.935215830802917480e-01
-2.263005822896957397e-02
-1.406536996364593506e-01
6.960947811603546143e-02
-7.318451255559921265e-02
-4.698955416679382324e-01
1.185705605894327164e-02
-6.061010062694549561e-02
-3.982204794883728027e-01
-1.589070633053779602e-02
-4.126082360744476318e-01
-1.559152901172637939e-01
4.060606062412261963e-01
6.062997505068778992e-02
2.461004704236984253e-01
7.649027556180953979e-02
3.869644105434417725e-01
-1.051726043224334717e-01
5.052288249135017395e-02
1.467304825782775879e-01
-1.736496947705745697e-02
3.653242290019989014e-01
5.337394475936889648e-01
-2.367150411009788513e-02
2.847752273082733154e-01
-5.020703747868537903e-02
-6.045056134462356567e-02
6.746784597635269165e-02
-7.809806615114212036e-02
-8.630255609750747681e-02
-1.800715029239654541e-01
3.006700873374938965e-01
-7.190459966659545898e-02
-1.758877933025360107e-01
1.658266186714172363e-01
-5.134140141308307648e-03
-4.770165309309959412e-02
1.399262924678623676e-03
6.440036296844482422e-01
7.999730296432971954e-03
-5.003678202629089355e-01
8.917697705328464508e-03
6.302735209465026855e-01
-6.207290664315223694e-02
-2.198989503085613251e-02
9.422663599252700806e-03
1.503585577011108398e-01
1.206360831856727600e-01
-1.298344582319259644e-01
-3.472485840320587158e-01
-1.982136815786361694e-01
-3.349978625774383545e-01
-3.091781139373779297e-01
-1.725192219018936157e-01
2.235993929207324982e-02
-3.685541450977325439e-02
-8.714818954467773438e-02
-1.544158160686492920e-02
2.614426910877227783e-01
7.367661595344543457e-02
7.005203962326049805e-01
-1.515290979295969009e-02
-7.260685414075851440e-02
1.608784194104373455e-03
4.887474328279495239e-02
-3.980848789215087891e-01
1.883441768586635590e-02
-1.260563433170318604e-01
1.879139058291912079e-02
-5.422965437173843384e-02
-6.444692611694335938e-02
-4.038038849830627441e-02
7.732606679201126099e-02
-3.815569579601287842e-01
-9.498054534196853638e-02
-6.943740695714950562e-02
3.752455487847328186e-02
3.846292197704315186e-01
2.343266606330871582e-01
-1.282979100942611694e-01
-6.841059029102325439e-02
-1.394513398408889771e-01
-4.936268925666809082e-02
-2.386211156845092773e-01
-4.966767132282257080e-02
2.860126318410038948e-03
1.324804276227951050e-01
-1.902565732598304749e-02
3.702645376324653625e-02
-1.765228211879730225e-01
3.262581825256347656e-01
6.821005791425704956e-02
1.165576949715614319e-01
4.293994978070259094e-02
3.946374729275703430e-02
7.145980000495910645e-02
-1.008099243044853210e-01
-2.848290503025054932e-01
-5.726290866732597351e-02
-9.913845360279083252e-02
8.751697093248367310e-02
-1.071614250540733337e-01
9.315434843301773071e-02
2.011208981275558472e-02
-1.246526613831520081e-01
5.225308984518051147e-02
-9.688708186149597168e-02
7.717350125312805176e-02
-1.510377675294876099e-01
-7.715632091276347637e-04
8.197798132896423340e-01
4.579582437872886658e-02
-1.118038222193717957e-02
-1.378756109625101089e-02
6.439839303493499756e-02
1.887132078409194946e-01
-1.111449226737022400e-01
-3.241471946239471436e-01
-7.727812975645065308e-02
-3.444786667823791504e-01
-8.776209503412246704e-02
-3.416667878627777100e-02
2.312380373477935791e-01
4.409799352288246155e-03
-2.106131613254547119e-01
3.454001247882843018e-01
-8.054972440004348755e-02
-6.480963528156280518e-02
1.069715060293674469e-02
7.507923059165477753e-03
-2.926168404519557953e-02
5.046463608741760254e-01
-3.092656731605529785e-01
-2.742686308920383453e-02
-8.099274337291717529e-02
-1.383267641067504883e-01
-1.899803578853607178e-01
-6.507550179958343506e-02
9.665265679359436035e-02
-3.893601149320602417e-02
-4.341854155063629150e-02
-3.061396777629852295e-01
1.993369162082672119e-01
-1.517692115157842636e-02
-1.532907485961914062e-01
-1.558437943458557129e-01
3.890912234783172607e-02
-1.040079891681671143e-01
2.932421490550041199e-02
-5.596652999520301819e-02
5.774895101785659790e-02
-1.280528604984283447e-01
-1.500330958515405655e-02
-1.527752578258514404e-01
-1.727550327777862549e-01
1.090622544288635254e-01
-2.272623218595981598e-02
3.200056552886962891e-01
-1.492042243480682373e-01
-1.582438647747039795e-01
-2.101730704307556152e-01
-2.048763036727905273e-01
-3.039238750934600830e-01
3.815831989049911499e-02
-1.935430020093917847e-01
7.811594009399414062e-02
-1.410581320524215698e-01
-1.065741181373596191e-01
-9.157589077949523926e-02
-2.047858834266662598e-01
-3.242102265357971191e-01
-1.030957251787185669e-01
6.795237064361572266e-01
-1.397136151790618896e-01
9.778644144535064697e-02
-1.016793623566627502e-01
3.318723291158676147e-02
1.862329095602035522e-01
3.732267916202545166e-01
-2.512636184692382812e-01
-4.294991865754127502e-02
1.814227402210235596e-01
3.275313880294561386e-03
-1.362348645925521851e-01
-3.994525596499443054e-02
4.261199533939361572e-01
6.044505536556243896e-02
-3.181419968605041504e-01
-1.371341645717620850e-01
1.374059468507766724e-01
-1.935437470674514771e-01
1.576664000749588013e-01
-2.189349569380283356e-02
5.761871337890625000e-01
-1.620741486549377441e-01
7.656948175281286240e-03
6.432123482227325439e-02
-3.419755399227142334e-02
-1.717286854982376099e-01
1.540403366088867188e-01
1.047721132636070251e-02
-2.206108123064041138e-01
-1.957294344902038574e-01
-6.178562641143798828e-01
7.206482347100973129e-03
-2.084049768745899200e-02
-3.517143800854682922e-02
-1.850600093603134155e-01
-2.594286203384399414e-01
-2.367110401391983032e-01
9.634386748075485229e-02
4.871889054775238037e-01
-3.533146381378173828e-01
2.124672755599021912e-02
5.218428000807762146e-02
-1.101597100496292114e-01
-6.994859129190444946e-02
-4.236775040626525879e-01
-7.403495162725448608e-02
-1.047081649303436279e-01
3.549038246273994446e-02
9.960838360711932182e-04
-1.818002015352249146e-01
-1.239198967814445496e-01
-2.945152483880519867e-02
-3.762381151318550110e-02
-6.207566708326339722e-02
3.503887448459863663e-03
2.663154900074005127e-01
-8.550222218036651611e-02
-3.947390317916870117e-01
6.387611478567123413e-02
3.622003272175788879e-02
6.464627385139465332e-02
-2.567541785538196564e-02
-3.227078616619110107e-01
-2.812266945838928223e-01
4.367740452289581299e-01
7.720253616571426392e-02
3.703433573246002197e-01
1.617324650287628174e-01
-1.570282727479934692e-01
2.440797835588455200e-01
1.140107437968254089e-01
2.975129149854183197e-02
-1.953675150871276855e-01
-1.863812655210494995e-01
7.550285756587982178e-02
1.634159237146377563e-01
-3.312583081424236298e-03
5.483303070068359375e-01
-3.361477553844451904e-01
3.429142534732818604e-01
-1.906110905110836029e-02
-1.976083517074584961e-01
2.775667607784271240e-02
-3.408909216523170471e-02
3.970974981784820557e-01
-1.665107458829879761e-01
-2.426423430442810059e-01
-2.082269079983234406e-02
-1.263153553009033203e-01
-3.329765796661376953e-01
1.608950830996036530e-02
3.182479441165924072e-01
8.754354119300842285e-01
-4.898705706000328064e-02
5.003755912184715271e-02
8.203683048486709595e-02
-8.195541799068450928e-02
-1.589111238718032837e-01
-9.845325350761413574e-02
8.196716196835041046e-03
-9.798598289489746094e-02
-1.579193025827407837e-01
2.006387263536453247e-01
2.038417942821979523e-02
-4.299585819244384766e-01
-1.803173273801803589e-01
4.253176748752593994e-01
1.415978670120239258e-01
9.914685785770416260e-02
-4.601076543331146240e-01
8.434356003999710083e-02
1.162725687026977539e-01
-4.001507535576820374e-02
1.128928735852241516e-01
-2.273052185773849487e-01
1.140304878354072571e-01
1.728647053241729736e-01
-3.517198562622070312e-02
-9.718021005392074585e-02
-1.837439835071563721e-02
4.725786745548248291e-01
-3.635037541389465332e-01
-3.123658336699008942e-02
-2.288423329591751099e-01
-1.262520626187324524e-02
-1.068745627999305725e-01
-1.438571214675903320e-01
1.968828439712524414e-01
-6.324242334812879562e-03
9.232148528099060059e-03
5.613611266016960144e-02
6.086881086230278015e-02
-1.486360430717468262e-01
1.593040525913238525e-01
-1.059045046567916870e-01
-1.211758404970169067e-01
3.561026230454444885e-02
-1.659843325614929199e-01
-1.760237962007522583e-01
-4.786554723978042603e-02
1.119657903909683228e-01
1.419796347618103027e-01
-2.051462680101394653e-01
-3.609569743275642395e-02
1.046776548027992249e-01
-6.152909621596336365e-02
2.189189791679382324e-01
1.705571822822093964e-02
-5.894930101931095123e-03
1.444801688194274902e-01
5.353800579905509949e-02
-6.953760981559753418e-02
-9.093975275754928589e-02
-1.937274187803268433e-01
-1.245795264840126038e-01
9.449677467346191406e-01
1.910046488046646118e-01
1.677232831716537476e-01
-4.457750618457794189e-01
2.672050595283508301e-01
-1.907511241734027863e-02
-2.732026576995849609e-02
-1.303364038467407227e-01
1.836358159780502319e-01
5.963354110717773438e-01
-8.553460356779396534e-04
1.608884930610656738e-01
2.338655292987823486e-01
-3.783602733165025711e-03
-3.143405318260192871e-01
-6.248737499117851257e-02
-7.244329899549484253e-02
5.348086357116699219e-02
4.798043072223663330e-01
-6.275675445795059204e-02
1.410007327795028687e-01
1.402921881526708603e-02
-8.210516721010208130e-02
-5.707518011331558228e-02
-6.982015445828437805e-03
8.710005134344100952e-02
2.215640060603618622e-02
4.876308441162109375e-01
1.346422582864761353e-01
-2.441086173057556152e-01
1.106252297759056091e-01
2.978010177612304688e-01
-1.475907713174819946e-01
-1.608870178461074829e-01
2.094857990741729736e-01
6.219439953565597534e-02
5.899074673652648926e-02
2.566373944282531738e-01
-3.837483003735542297e-02
1.728868111968040466e-02
-6.924996525049209595e-02
1.737318933010101318e-02
-2.093579322099685669e-01
1.815890520811080933e-01
9.928926825523376465e-02
7.322567701339721680e-02
3.156121447682380676e-02
-6.747011840343475342e-02
-3.414738923311233521e-02
7.592911273241043091e-02
2.333784475922584534e-02
5.304526165127754211e-02
-7.718247175216674805e-02
-4.191973805427551270e-02
-2.920443415641784668e-01
1.118837203830480576e-02
-3.276748061180114746e-01
5.087314918637275696e-02
5.881422199308872223e-03
-1.553419791162014008e-02
-3.024560399353504181e-02
-1.491944491863250732e-01
4.228628799319267273e-02
-7.562674582004547119e-02
1.511057559400796890e-02
2.208155989646911621e-01
-1.875075697898864746e-01
-8.858166635036468506e-02
2.665032260119915009e-02
-4.948733448982238770e-01
-2.191960811614990234e-01
1.202085912227630615e-01
-3.372137546539306641e-01
1.762537285685539246e-02
-1.923148185014724731e-01
1.013884134590625763e-02
-7.968688756227493286e-02
-1.004363670945167542e-01
-1.995066255331039429e-01
-2.739521265029907227e-01
-2.152805775403976440e-01
5.624256134033203125e-01
-1.366340219974517822e-01
-2.152045071125030518e-02
-3.123087584972381592e-01
-1.792945563793182373e-01
-3.021699786186218262e-01
5.519301816821098328e-02
1.125752702355384827e-01
-5.181257799267768860e-02
-3.972825109958648682e-01
-5.985544249415397644e-02
-3.519362807273864746e-01
-3.337152302265167236e-02
7.577699422836303711e-02
-4.265226796269416809e-02
4.564794152975082397e-02
-2.830402553081512451e-02
1.055525466799736023e-01
-8.526111394166946411e-02
1.579091548919677734e-01
5.596506968140602112e-02
3.017984926700592041e-01
-7.670088857412338257e-02
-2.931903302669525146e-01
-6.798564642667770386e-02
-1.772767156362533569e-01
9.847080707550048828e-01
-7.904882729053497314e-02
-7.143634371459484100e-03
-1.540338620543479919e-02
1.825873740017414093e-02
-1.856976374983787537e-02
2.569608986377716064e-01
-1.867337711155414581e-02
-5.962410941720008850e-02
-3.678901866078376770e-02
-7.027475535869598389e-02
-1.140628531575202942e-01
1.857205182313919067e-01
1.132388636469841003e-01
5.831490159034729004e-01
-1.160065010190010071e-01
-7.435779273509979248e-02
4.463572055101394653e-02
9.038645774126052856e-02
1.381275709718465805e-02
-6.740256398916244507e-02
8.316241204738616943e-02
6.328035593032836914e-01
-3.796731308102607727e-02
-1.275182664394378662e-01
-1.922130137681961060e-01
-1.366525441408157349e-01
-1.936459541320800781e-01
2.729172818362712860e-02
-9.278156608343124390e-02
-1.078696027398109436e-01
-6.302675604820251465e-02
-9.758760035037994385e-02
-1.495603621006011963e-01
-5.098233232274651527e-04
-1.160754915326833725e-02
8.645953238010406494e-02
7.362788915634155273e-02
1.053410000167787075e-03
-8.068405091762542725e-02
-5.255721881985664368e-02
-2.094160914421081543e-01
-1.999925673007965088e-01
2.684755623340606689e-02
1.930983960628509521e-01
2.299821674823760986e-01
-1.413905471563339233e-01
1.859227893874049187e-03
-8.838974684476852417e-02
-1.291130781173706055e-01
-2.280763685703277588e-01
2.368686795234680176e-01
-7.613493595272302628e-03
3.319683670997619629e-02
-4.848267883062362671e-02
-7.126760482788085938e-02
3.442339897155761719e-01
4.682659804821014404e-01
1.954038254916667938e-02
-1.819422002881765366e-03
-5.153511464595794678e-02
9.608106920495629311e-04
-7.475163787603378296e-03
7.081058621406555176e-02
3.316485509276390076e-02
7.117125391960144043e-02
-2.458231300115585327e-01
-1.472369283437728882e-01
-1.408836692571640015e-01
-2.016010135412216187e-01
1.281174719333648682e-01
7.395589724183082581e-03
-7.054634392261505127e-02
-5.638105049729347229e-02
1.730019897222518921e-01
7.417629659175872803e-02
5.382327735424041748e-02
5.986296012997627258e-02
1.769943535327911377e-01
-1.487846970558166504e-01
-1.472551077604293823e-01
-2.361462078988552094e-02
-2.201703339815139771e-01
-3.953969106078147888e-02
-1.778694242238998413e-01
7.750865817070007324e-01
1.188866198062896729e-01
4.485329091548919678e-01
-1.365422606468200684e-01
-1.471974253654479980e-01
-2.659456804394721985e-03
4.956077933311462402e-01
6.905780434608459473e-01
-2.485210746526718140e-01
-3.708550333976745605e-01
-2.810375764966011047e-03
2.411349862813949585e-02
-4.520331621170043945e-01
-1.662372797727584839e-01
-2.232951819896697998e-01
7.896343618631362915e-02
1.823126226663589478e-01
-1.643945723772048950e-01
3.313147127628326416e-01
-6.009341403841972351e-02
-2.782542705535888672e-01
-1.974113881587982178e-01
5.343462526798248291e-02
-1.064686477184295654e-01
8.342103660106658936e-02
-8.669407665729522705e-02
-9.588503092527389526e-02
5.406835675239562988e-01
-1.945453733205795288e-01
5.227029696106910706e-02
-4.651898145675659180e-02
-2.613713145256042480e-01
9.164194762706756592e-02
1.410557627677917480e-01
1.584842354059219360e-01
-1.478332579135894775e-01
-4.329774528741836548e-02
5.848716013133525848e-03
-1.248012408614158630e-01
1.288518607616424561e-01
-7.869065552949905396e-02
2.176785916090011597e-01
-9.715856611728668213e-02
-8.060599863529205322e-02
1.022519730031490326e-02
-4.936376959085464478e-02
1.511357277631759644e-01
3.275724593549966812e-03
1.065552458167076111e-01
-2.966622710227966309e-01
-6.269738823175430298e-02
-6.157715688459575176e-05
2.849870324134826660e-01
4.944677650928497314e-02
3.250216320157051086e-02
-8.331853151321411133e-02
4.463685154914855957e-01
-9.022473543882369995e-02
-1.986582577228546143e-01
2.310474663972854614e-01
9.703242033720016479e-02
-8.836059831082820892e-03
-2.514338865876197815e-02
2.965280413627624512e-02
-1.161574721336364746e-01
-6.665391474962234497e-02
-3.215722739696502686e-01
2.776256017386913300e-02
6.291159242391586304e-02
8.852054178714752197e-02
1.503233164548873901e-01
-5.940529704093933105e-02
-1.033327877521514893e-01
8.332433551549911499e-02
1.482103578746318817e-02
8.056016266345977783e-02
-7.538609951734542847e-02
1.036637783050537109e+00
3.020440638065338135e-01
-2.712666392326354980e-01
2.138836681842803955e-01
-4.960421100258827209e-02
-1.222872138023376465e-01
1.538290232419967651e-01
5.917581915855407715e-02
-1.143356263637542725e-01
-1.355273276567459106e-01
-6.170956790447235107e-02
-1.553442422300577164e-02
-1.138385087251663208e-01
-7.185051590204238892e-02
-2.288930863142013550e-01
-5.207642316818237305e-01
4.972863942384719849e-02
-7.010568678379058838e-02
8.778876066207885742e-02
5.170132517814636230e-01
-4.672460556030273438e-01
9.734770655632019043e-02
6.761381030082702637e-02
-1.484990715980529785e-01
2.879460453987121582e-01
4.573324620723724365e-01
-4.076807573437690735e-02
-7.653877884149551392e-02
4.471361171454191208e-03
1.521948259323835373e-02
2.977956458926200867e-02
-6.660747528076171875e-02
-1.066978797316551208e-01
-3.153628483414649963e-02
-4.087720215320587158e-01
8.611070364713668823e-02
3.394023515284061432e-04
-1.484531015157699585e-01
-7.570146024227142334e-02
2.008953690528869629e-02
-4.065349698066711426e-01
1.212547570466995239e-01
-5.415993556380271912e-02
-3.485446870326995850e-01
-1.514073833823204041e-02
-4.222891330718994141e-01
2.825289033353328705e-02
3.922682702541351318e-01
1.087432075291872025e-02
-2.572708427906036377e-01
-1.224184185266494751e-01
-1.558226197957992554e-01
6.675726771354675293e-01
4.161827266216278076e-01
3.951736986637115479e-01
2.771870791912078857e-01
-4.063644260168075562e-02
3.394480347633361816e-01
4.032694175839424133e-02
7.220189552754163742e-03
7.218651175498962402e-01
3.730812966823577881e-01
5.984823107719421387e-01
-8.042286336421966553e-02
1.560143381357192993e-01
4.861536994576454163e-02
-1.251522153615951538e-01
4.913594573736190796e-02
5.797935649752616882e-02
-3.839322924613952637e-02
-2.584183514118194580e-01
1.433401554822921753e-01
7.995577529072761536e-03
-3.246972709894180298e-02
-1.586205363273620605e-01
1.858724653720855713e-01
-3.140896558761596680e-02
3.011922724545001984e-02
-2.803604006767272949e-01
4.392557591199874878e-02
-1.403779089450836182e-01
-1.205566152930259705e-01
-1.270540710538625717e-02
-6.767212413251399994e-03
-6.259594857692718506e-02
-1.145138666033744812e-01
3.542476892471313477e-02
-3.745584562420845032e-02
1.635857373476028442e-01
-1.038186624646186829e-01
2.393075972795486450e-01
-4.688682258129119873e-01
-2.034673839807510376e-01
-3.117231428623199463e-01
-2.968646883964538574e-01
2.312672287225723267e-01
1.077432557940483093e-01
5.699197947978973389e-02
1.207716464996337891e-01
-3.200400993227958679e-02
2.917868085205554962e-02
-1.141198128461837769e-01
1.479369699954986572e-01
-3.237057849764823914e-02
2.223148941993713379e-01
-3.677376508712768555e-01
-1.017352268099784851e-01
-4.602554067969322205e-02
1.758857257664203644e-02
3.547056019306182861e-02
-7.000035047531127930e-02
-3.148542940616607666e-01
6.567181646823883057e-02
-4.040211737155914307e-01
1.002108096145093441e-03
-7.568041235208511353e-02
1.049757376313209534e-02
8.858006447553634644e-02
-1.979519613087177277e-02
5.588795542716979980e-01
-2.623111903667449951e-01
-6.756828725337982178e-02
-8.261400461196899414e-02
-1.280621346086263657e-02
4.107271730899810791e-01
3.646247386932373047e-01
-2.146189846098423004e-02
-8.715797215700149536e-02
3.404880464076995850e-01
2.729735802859067917e-03
-6.483615189790725708e-02
2.613041698932647705e-01
-8.278083056211471558e-02
2.886707782745361328e-01
3.066459596157073975e-01
-9.415265917778015137e-02
-3.068111091852188110e-02
1.416661590337753296e-01
2.634115703403949738e-02
-2.694938778877258301e-01
-3.952789902687072754e-01
1.168230548501014709e-01
4.798689112067222595e-02
2.619377896189689636e-02
1.147122234106063843e-01
3.053398430347442627e-01
-1.107787489891052246e-01
2.083593979477882385e-02
-2.318263798952102661e-01
-2.167168073356151581e-02
3.567876666784286499e-02
-5.225923284888267517e-02
5.977340042591094971e-02
-6.859444826841354370e-02
1.657638102769851685e-01
9.236966073513031006e-02
8.695590496063232422e-02
-2.654991857707500458e-02
-3.437576442956924438e-02
7.261839509010314941e-02
-1.788147091865539551e-01
-2.757009565830230713e-01
-6.205845996737480164e-02
-2.278908938169479370e-01
-5.917526036500930786e-02
-2.866490185260772705e-01
4.728406295180320740e-02
-1.174495220184326172e-01
-9.806959889829158783e-03
-5.141988024115562439e-02
7.733290195465087891e-01
-3.514895960688591003e-02
-3.436405956745147705e-01
-1.710965633392333984e-01
-1.433949321508407593e-01
6.251270174980163574e-01
2.256667762994766235e-01
6.724409461021423340e-01
1.095780730247497559e-01
2.651785910129547119e-01
-3.723178803920745850e-01
4.017317891120910645e-01
-4.033453762531280518e-01
5.526313185691833496e-01
5.088348984718322754e-01
8.025521039962768555e-02
-4.870476573705673218e-02
-3.905548900365829468e-02
-5.903902053833007812e-01
-8.080738782882690430e-02
-8.817411959171295166e-02
3.577408567070960999e-02
4.054383188486099243e-02
1.804536581039428711e-01
1.795019358396530151e-01
-3.436695933341979980e-01
4.552941024303436279e-01
7.926881313323974609e-03
9.291055798530578613e-02
-3.615529090166091919e-02
1.565813831984996796e-02
-2.346568256616592407e-01
-9.787057340145111084e-02
-6.501124054193496704e-02
-9.081918001174926758e-02
-1.931179165840148926e-01
2.478365302085876465e-01
-5.710567813366651535e-03
-4.516399279236793518e-02
2.324672788381576538e-01
-6.075750291347503662e-02
3.196637332439422607e-01
-2.298666536808013916e-01
4.760000407695770264e-01
-5.713989213109016418e-02
-2.077963948249816895e-01
7.322571706026792526e-03
1.456204056739807129e-01
2.895263135433197021e-01
8.115606382489204407e-03
-1.930085867643356323e-01
5.135767459869384766e-01
-3.028750419616699219e-01
6.569943856447935104e-03
-1.508294790983200073e-02
4.025296270847320557e-01
7.321964949369430542e-02
3.524097427725791931e-02
8.681708574295043945e-02
-8.004364371299743652e-02
5.410696612671017647e-04
4.017319995909929276e-03
-2.384809777140617371e-02
-2.987125515937805176e-01
-9.709709137678146362e-02
-6.105260457843542099e-03
4.228487983345985413e-02
1.904637925326824188e-02
-2.091021686792373657e-01
-1.809814572334289551e-01
9.957923553884029388e-03
-1.006997004151344299e-01
3.856143727898597717e-02
-6.065723299980163574e-02
-1.569046638906002045e-02
1.523045897483825684e-01
-1.148446798324584961e-01
4.326683878898620605e-01
3.651120364665985107e-01
-1.295942366123199463e-01
-6.856088060885667801e-03
3.169143199920654297e-02
1.050525307655334473e-01
-2.694728076457977295e-01
-4.379167258739471436e-01
1.133105810731649399e-02
7.556808181107044220e-03
-1.548358500003814697e-01
-8.064290881156921387e-02
-5.863914638757705688e-02
1.943860799074172974e-01
-1.708565950393676758e-01
2.653419412672519684e-02
1.853774338960647583e-01
-3.365157544612884521e-01
-6.477368623018264771e-02
-2.708632126450538635e-02
-2.250518053770065308e-01
-2.602830529212951660e-01
1.376030743122100830e-01
1.077541708946228027e-01
1.559255924075841904e-02
4.095161706209182739e-02
4.913343489170074463e-02
1.450664848089218140e-01
5.493878945708274841e-02
7.310819625854492188e-02
