-3.696183562278747559e-01
-2.881800830364227295e-01
-3.799476623535156250e-01
-4.803074896335601807e-01
-1.910185217857360840e-01
-3.090569078922271729e-01
3.857182562351226807e-01
1.408612877130508423e-01
6.140646338462829590e-01
-1.095050945878028870e-01
-1.082405820488929749e-01
-4.383503273129463196e-02
1.888214647769927979e-01
6.259657740592956543e-01
3.015768826007843018e-01
-4.456784110516309738e-03
-1.941583454608917236e-01
-7.969843745231628418e-01
6.438271403312683105e-01
6.260113716125488281e-01
3.509154617786407471e-01
1.422548741102218628e-01
-9.373053908348083496e-03
-2.207054048776626587e-01
-6.369409561157226562e-01
-8.450196385383605957e-01
-4.521597325801849365e-01
-2.120544612407684326e-01
-1.798491626977920532e-01
-3.153522610664367676e-01
-2.291882932186126709e-01
-1.440728306770324707e-01
-3.253293931484222412e-01
3.637118339538574219e-01
4.267366528511047363e-01
-5.222355574369430542e-02
-2.736323773860931396e-01
-1.825562864542007446e-01
-3.654798865318298340e-01
-1.964158117771148682e-01
-3.485069572925567627e-01
1.184962838888168335e-01
-4.048853814601898193e-01
-1.612374931573867798e-01
3.831411302089691162e-01
2.813532352447509766e-01
-2.287036776542663574e-01
-3.311045765876770020e-01
2.168109565973281860e-01
-2.196372449398040771e-01
2.494441866874694824e-01
-1.432920694351196289e-01
-3.505009412765502930e-01
-5.341225489974021912e-02
-2.582086026668548584e-01
-4.600611701607704163e-02
-1.304361373186111450e-01
4.860483407974243164e-01
-3.726851344108581543e-01
-3.306482732295989990e-01
2.727970480918884277e-01
4.038164913654327393e-01
-2.387319356203079224e-01
-5.245547294616699219e-01
-3.662951886653900146e-01
-3.632740303874015808e-02
6.120637431740760803e-02
3.901087120175361633e-02
-1.279040277004241943e-01
5.076388716697692871e-01
2.436239123344421387e-01
2.560789883136749268e-01
6.267719864845275879e-01
4.460559189319610596e-01
-9.653009474277496338e-02
8.310620784759521484e-01
1.142977997660636902e-01
-8.995957970619201660e-01
6.531140804290771484e-01
-4.171749353408813477e-01
-9.313466548919677734e-01
7.669813036918640137e-01
2.922101020812988281e-01
5.961592793464660645e-01
-2.786383628845214844e-01
2.262979373335838318e-02
-2.791376113891601562e-01
-5.723537802696228027e-01
-5.391513109207153320e-01
-4.701445996761322021e-01
2.182354480028152466e-01
-6.119842529296875000e-01
-7.457937002182006836e-01
7.339491248130798340e-01
-3.705224953591823578e-03
1.263713240623474121e-01
-2.161923348903656006e-01
5.669124126434326172e-01
5.687897205352783203e-01
2.176031619310379028e-01
6.892858147621154785e-01
1.323057059198617935e-02
7.794211506843566895e-01
7.538707852363586426e-01
-3.490152060985565186e-01
4.745350405573844910e-02
1.389457881450653076e-01
1.335088312625885010e-01
1.962961852550506592e-01
6.412361264228820801e-01
9.390825629234313965e-01
5.489796772599220276e-02
-2.435942143201828003e-01
1.357948780059814453e-01
-1.020525217056274414e+00
-5.864985585212707520e-01
-7.499725818634033203e-01
-7.006834149360656738e-01
-5.405477285385131836e-01
1.058618426322937012e-01
2.473874688148498535e-01
4.136841297149658203e-01
5.811379551887512207e-01
2.817720770835876465e-01
4.303262755274772644e-02
-3.288372978568077087e-02
6.224318593740463257e-02
7.525107264518737793e-02
3.304774165153503418e-01
1.010533198714256287e-01
2.565214335918426514e-01
3.515500128269195557e-01
-5.901498198509216309e-01
-3.376582264900207520e-01
3.423228859901428223e-01
-2.939002513885498047e-01
-2.592174112796783447e-01
2.539287507534027100e-01
-1.258496791124343872e-01
5.997448787093162537e-02
-3.017231523990631104e-01
-6.617034226655960083e-02
7.965451478958129883e-02
4.472069814801216125e-02
