2.325023338198661804e-02
-4.404654353857040405e-02
8.195563219487667084e-03
-1.687195003032684326e-01
-2.101950794458389282e-01
-9.887678921222686768e-02
-1.633519306778907776e-02
-7.035263627767562866e-02
-3.140287101268768311e-02
-1.447113007307052612e-01
-2.711602859199047089e-02
-1.553125679492950439e-01
9.874495863914489746e-02
1.043229922652244568e-01
-1.235095784068107605e-02
-2.007448524236679077e-01
-2.276310697197914124e-02
-5.474841594696044922e-02
-1.140734776854515076e-01
-2.678788304328918457e-01
-2.738277614116668701e-01
1.307361125946044922e-01
2.246298789978027344e-01
1.317481547594070435e-01
-1.384226083755493164e-01
-6.252983957529067993e-02
5.844340845942497253e-02
4.919330123811960220e-03
4.619191959500312805e-02
-7.175062596797943115e-02
-7.334458827972412109e-02
-8.729840815067291260e-02
-1.176318060606718063e-02
4.269579052925109863e-02
-8.856428414583206177e-02
2.049225382506847382e-03
-1.266153901815414429e-01
-1.281401216983795166e-01
-4.083723202347755432e-02
-5.451006814837455750e-02
-1.893673241138458252e-01
-1.309217363595962524e-01
-3.693018481135368347e-02
-8.972539007663726807e-02
-1.454553799703717232e-03
-3.603465482592582703e-02
-7.103262096643447876e-02
-7.881380617618560791e-02
4.818572849035263062e-02
-5.446618795394897461e-02
7.048063445836305618e-03
6.373707205057144165e-02
-8.868566155433654785e-02
6.380292028188705444e-02
7.043344527482986450e-02
1.007765308022499084e-01
-7.145870476961135864e-02
-1.096739545464515686e-01
-6.380620598793029785e-02
-9.137231856584548950e-02
1.156142540276050568e-02
-8.338275551795959473e-02
-7.069181650876998901e-02
-2.270225994288921356e-02
2.297575026750564575e-02
2.919661253690719604e-02
-8.577247709035873413e-02
-8.771397173404693604e-02
-5.032413080334663391e-02
-2.430149540305137634e-02
-7.731360942125320435e-02
-9.099018760025501251e-03
-4.168463498353958130e-02
-8.981652557849884033e-02
-2.005031853914260864e-01
-2.779506891965866089e-02
-1.395249217748641968e-01
-1.508515328168869019e-01
-1.038890630006790161e-01
-2.603020146489143372e-02
-6.746878474950790405e-02
-1.553234308958053589e-01
-1.896778494119644165e-01
-2.008264064788818359e-01
7.890412956476211548e-02
9.873590432107448578e-03
-2.958641573786735535e-02
8.311267942190170288e-02
-1.931900531053543091e-02
7.074871659278869629e-02
5.335125699639320374e-02
8.077043294906616211e-02
9.574414230883121490e-03
1.627664826810359955e-02
1.641083210706710815e-01
-2.232428081333637238e-02
-1.417246460914611816e-01
-4.734299704432487488e-02
-1.680457741022109985e-01
-2.863958477973937988e-02
-2.285394370555877686e-01
-1.635853648185729980e-01
1.061632782220840454e-01
1.447521150112152100e-01
3.260210528969764709e-02
-2.006361484527587891e-01
-1.574126183986663818e-01
-5.349272489547729492e-02
-7.575320452451705933e-02
-1.394777446985244751e-01
-1.670240759849548340e-01
1.428520828485488892e-01
3.097866103053092957e-02
4.939019307494163513e-02
-2.095699310302734375e-02
3.596498444676399231e-02
-1.086370423436164856e-01
2.860543131828308105e-02
9.521609544754028320e-02
1.516337692737579346e-01
1.621591486036777496e-02
-3.514786437153816223e-02
9.506471455097198486e-03
-1.986076086759567261e-01
-1.597954034805297852e-01
-4.183341562747955322e-02
-5.195472016930580139e-02
1.681216619908809662e-02
-1.242599561810493469e-01
1.605682261288166046e-02
-2.108857221901416779e-02
7.421696931123733521e-02
3.163428604602813721e-02
4.239910840988159180e-02
-6.291120313107967377e-03
4.702838882803916931e-02
2.347518317401409149e-02
-2.104056626558303833e-02
3.067639889195561409e-03
3.234288468956947327e-02
1.566344685852527618e-02
-1.762221753597259521e-02
1.155364699661731720e-02
-7.052902132272720337e-02
-4.921493818983435631e-04
-3.631513565778732300e-02
1.123612001538276672e-01
-9.539422579109668732e-03
4.627316817641258240e-02
-6.167561560869216919e-02
6.865210086107254028e-02
1.329048722982406616e-02
-1.750647649168968201e-02
8.869393914937973022e-02
-3.645338863134384155e-02
-6.506982445716857910e-02
8.525287359952926636e-02
-1.387849897146224976e-01
9.553070366382598877e-02
-8.261941373348236084e-02
-1.189480945467948914e-01
1.270944923162460327e-01
1.244338005781173706e-01
-6.332726031541824341e-02
-7.845646142959594727e-02
1.012376174330711365e-01
-2.347839325666427612e-01
1.311509013175964355e-01
-2.976959943771362305e-02
-2.871877253055572510e-01
1.655602753162384033e-01
-1.419798284769058228e-02
-5.607685074210166931e-02
-4.771322757005691528e-02
-1.585267251357436180e-03
-6.268481910228729248e-02
3.334785625338554382e-02
8.344846218824386597e-02
4.492968693375587463e-02
3.790761530399322510e-02
-6.715147942304611206e-02
2.577137574553489685e-02
1.686175353825092316e-02
-7.141529023647308350e-02
-1.217666734009981155e-02
2.792927995324134827e-02
-6.771799921989440918e-02
-6.327451206743717194e-03
-9.959677606821060181e-02
6.788263097405433655e-03
1.074824780225753784e-01
6.463665515184402466e-02
-7.094890344887971878e-03
-2.810427546501159668e-02
1.241932623088359833e-02
3.470619395375251770e-02
-2.022730931639671326e-02
-1.986187323927879333e-02
9.457945078611373901e-02
6.999735254794359207e-03
-1.176413223147392273e-01
-7.582954317331314087e-02
-1.516561657190322876e-01
4.608185589313507080e-02
-1.065603345632553101e-01
-2.941459789872169495e-02
4.378744959831237793e-02
8.133565075695514679e-03
-1.342808008193969727e-01
3.335884539410471916e-03
2.578221447765827179e-02
-5.954274535179138184e-02
4.688554629683494568e-02
4.518785700201988220e-02
-7.796885818243026733e-02
-1.341885514557361603e-02
1.908520609140396118e-01
1.088656485080718994e-01
-2.379133701324462891e-01
1.903263926506042480e-01
-6.678561866283416748e-02
-9.551288932561874390e-02
9.650389850139617920e-02
-1.839647442102432251e-01
-1.755645312368869781e-02
-9.764024615287780762e-02
-1.133900284767150879e-01
-1.274065077304840088e-01
1.201781108975410461e-01
-2.096340991556644440e-02
-2.328789327293634415e-03
-5.272568087093532085e-04
-6.227824836969375610e-02
6.595704704523086548e-02
-1.225668340921401978e-01
-8.905811607837677002e-02
5.631712451577186584e-02
-1.014653444290161133e-01
5.105233751237392426e-03
-8.272983133792877197e-03
-2.721252292394638062e-02
-4.084901884198188782e-02
-1.439283415675163269e-02
1.172111108899116516e-01
-1.512385308742523193e-01
-1.251471936702728271e-01
4.672104492783546448e-02
-3.412561118602752686e-01
2.709003090858459473e-01
-2.215828895568847656e-01
-1.787436008453369141e-01
1.940999478101730347e-01
-7.386223971843719482e-02
-5.591970309615135193e-02
-1.252108067274093628e-01
-7.867154665291309357e-03
-1.702515482902526855e-01
2.184141054749488831e-02
-5.221041664481163025e-02
-4.264861345291137695e-02
-1.715463027358055115e-02
-2.502737939357757568e-02
-5.557291582226753235e-02
5.860281363129615784e-02
-1.415112465620040894e-01
9.329362772405147552e-03
1.647309213876724243e-01
-7.848162949085235596e-02
-7.659967988729476929e-02
2.004633285105228424e-02
-3.615572117269039154e-03
-1.105814427137374878e-01
3.855643793940544128e-02
-1.032705679535865784e-01
3.254762664437294006e-02
1.114466786384582520e-01
-1.121914237737655640e-01
-5.619477108120918274e-02
2.478144504129886627e-02
-3.307279571890830994e-02
7.682895287871360779e-03
-6.460909545421600342e-02
2.543978951871395111e-02
-5.711927637457847595e-02
7.854597270488739014e-02
5.079408735036849976e-02
1.950480043888092041e-02
-6.053235009312629700e-02
-8.173888921737670898e-02
-6.626465171575546265e-02
6.065916270017623901e-02
-8.574815094470977783e-02
-8.259328454732894897e-02
1.200980972498655319e-02
1.569454669952392578e-01
1.241268217563629150e-01
6.367839872837066650e-02
1.062886789441108704e-01
-4.554134979844093323e-02
-1.881900280714035034e-01
1.685559898614883423e-01
-3.858198598027229309e-02
-1.408164054155349731e-01
-1.722418367862701416e-01
-6.704036146402359009e-02
-2.783992327749729156e-02
-6.020124629139900208e-02
-2.790235728025436401e-02
-1.618666350841522217e-01
2.404100894927978516e-01
-1.649956554174423218e-01
-1.181448325514793396e-01
7.279124110937118530e-02
-1.465051919221878052e-01
2.142235077917575836e-02
-3.683509305119514465e-02
4.436272429302334785e-04
-1.768961735069751740e-02
-5.662187188863754272e-02
-4.813377931714057922e-02
4.841867834329605103e-03
8.534858375787734985e-02
-3.132876008749008179e-02
-4.747825860977172852e-02
5.178815126419067383e-02
-3.838014602661132812e-02
1.709169149398803711e-02
-7.396420091390609741e-02
1.348745264112949371e-02
-1.008411217480897903e-02
-3.746458888053894043e-02
5.119661614298820496e-02
-3.648940473794937134e-02
9.441294521093368530e-02
9.322288632392883301e-02
2.198221534490585327e-02
1.072119176387786865e-01
1.036313734948635101e-02
3.950563818216323853e-02
3.338541428092867136e-04
3.427140787243843079e-02
-5.757752433419227600e-02
1.267614588141441345e-02
4.549376294016838074e-02
2.183114923536777496e-02
4.509963467717170715e-02
-2.493740804493427277e-02
-1.193866226822137833e-02
-5.405429750680923462e-02
-7.227710634469985962e-02
2.468052506446838379e-02
1.375385466963052750e-02
-1.041988134384155273e-01
-3.028093604370951653e-03
6.586969643831253052e-02
-1.091077271848917007e-02
-7.044687122106552124e-02
2.703898586332798004e-02
3.991520777344703674e-02
4.549945704638957977e-03
2.613361179828643799e-01
-6.161679327487945557e-02
-2.133309096097946167e-01
3.738051950931549072e-01
-8.611183613538742065e-02
-4.678993672132492065e-02
-1.322036236524581909e-01
-2.537786066532135010e-01
-4.864139482378959656e-02
-4.862248525023460388e-02
-4.358565807342529297e-02
4.491978138685226440e-02
1.041859239339828491e-01
3.882603719830513000e-02
-1.143568828701972961e-01
1.897452175617218018e-01
-1.057831868529319763e-01
-7.087734341621398926e-02
-4.642968252301216125e-02
-2.019899897277355194e-02
2.269947901368141174e-02
-5.467538535594940186e-02
-9.681540727615356445e-02
2.656710892915725708e-02
-1.233417764306068420e-01
-5.303634330630302429e-02
6.643363833427429199e-02
1.672402918338775635e-01
-1.009981185197830200e-01
-3.250848054885864258e-01
3.248546719551086426e-01
-2.700367271900177002e-01
-1.277697533369064331e-01
-3.902405798435211182e-01
-2.845100760459899902e-01
-1.283572171814739704e-03
-1.069309711456298828e-01
-7.510083913803100586e-02
-6.245059892535209656e-02
-4.475358128547668457e-02
-9.066396951675415039e-02
-2.683804184198379517e-02
3.238620981574058533e-02
-1.955227181315422058e-02
1.982099143788218498e-03
-2.837772294878959656e-02
-1.661461144685745239e-01
-6.993630528450012207e-02
-3.892911225557327271e-02
-1.516394317150115967e-01
1.101846098899841309e-01
-6.607162207365036011e-02
-5.128855258226394653e-02
9.353910386562347412e-02
-2.460376545786857605e-02
-1.169919595122337341e-01
-1.514278631657361984e-02
-1.110559329390525818e-02
-1.013366058468818665e-01
2.959339320659637451e-02
1.085575204342603683e-02
-6.718762964010238647e-02
-5.327188968658447266e-02
-2.744813077151775360e-02
7.994525879621505737e-02
-6.862112134695053101e-02
-6.118584051728248596e-02
4.896406084299087524e-02
-2.577781677246093750e-02
-4.555046558380126953e-02
-4.149342328310012817e-02
-2.818019315600395203e-02
-3.403743803501129150e-01
-3.172069415450096130e-02
-1.718438863754272461e-01
-1.143327802419662476e-01
-8.614838123321533203e-02
-5.984668619930744171e-03
1.608894914388656616e-01
1.021634787321090698e-01
1.660822480916976929e-01
-3.893952071666717529e-02
1.756974309682846069e-01
1.983202397823333740e-01
-2.087970972061157227e-01
-1.847155392169952393e-02
6.677822768688201904e-02
-2.732315957546234131e-01
-2.889128625392913818e-01
-1.874909996986389160e-01
-2.461288357153534889e-03
7.238595746457576752e-03
1.855335831642150879e-01
-2.473303377628326416e-01
3.344785571098327637e-01
3.139457404613494873e-01
-4.045794606208801270e-01
-2.035436332225799561e-01
-1.953257322311401367e-01
-1.941945869475603104e-03
4.022255912423133850e-02
1.517708599567413330e-02
1.339900307357311249e-02
-7.176317274570465088e-02
8.659024536609649658e-02
-2.604870125651359558e-02
1.221742853522300720e-01
1.057954614225309342e-05
-2.890086770057678223e-01
-6.702093034982681274e-02
-1.316823810338973999e-01
-7.144657522439956665e-02
-1.346261054277420044e-02
-8.032513409852981567e-02
8.050853386521339417e-03
8.076595515012741089e-02
-2.828906290233135223e-03
-1.218084059655666351e-02
-4.646553099155426025e-02
-6.576605886220932007e-02
-9.457132965326309204e-02
4.101618658751249313e-03
-1.356813497841358185e-02
-5.294900760054588318e-02
-1.051068902015686035e-01
5.781747773289680481e-02
2.831021882593631744e-02
3.182020038366317749e-02
-3.677219152450561523e-02
-4.751719534397125244e-02
-1.405641287565231323e-01
-5.012046918272972107e-02
-6.277465820312500000e-02
-1.295011490583419800e-01
-7.860697805881500244e-03
-9.936717152595520020e-02
-4.531836882233619690e-02
1.130914688110351562e-01
-8.686801791191101074e-02
-9.898137301206588745e-02
3.497534990310668945e-02
1.175494566559791565e-01
1.377860903739929199e-01
2.299626916646957397e-01
-1.131157949566841125e-01
-1.669859699904918671e-02
-2.536340951919555664e-01
-4.519025683403015137e-01
-2.319056168198585510e-02
1.246715039014816284e-01
-3.752093315124511719e-01
-2.932976484298706055e-01
8.082163333892822266e-02
-8.409435302019119263e-02
-2.084049433469772339e-01
7.092547416687011719e-02
8.263439685106277466e-02
6.798905134201049805e-02
1.426683962345123291e-01
-1.094617471098899841e-01
1.697004586458206177e-01
1.203520372509956360e-01
1.836132705211639404e-01
4.498271048069000244e-01
3.531935811042785645e-02
-1.779778301715850830e-01
5.510855466127395630e-02
-1.474920660257339478e-01
6.896109879016876221e-02
-1.993038132786750793e-02
1.056169867515563965e-01
1.685447692871093750e-01
1.107973083853721619e-01
-8.467885851860046387e-02
-5.513256788253784180e-01
1.568499952554702759e-01
-4.242224618792533875e-03
-6.876221299171447754e-01
-6.259304881095886230e-01
-4.099367558956146240e-01
1.731855571269989014e-01
-1.682069897651672363e-02
2.027824074029922485e-01
1.480736136436462402e-01
1.999969184398651123e-01
6.301718950271606445e-02
-1.307644695043563843e-01
1.602366566658020020e-01
-7.639303058385848999e-02
-5.114010348916053772e-02
1.984904706478118896e-01
3.746277391910552979e-01
-4.240132570266723633e-01
-1.905839145183563232e-01
-4.214363172650337219e-02
-8.611149340867996216e-02
2.419951371848583221e-02
-1.105933822691440582e-02
2.403000146150588989e-01
-2.857143245637416840e-02
2.092250064015388489e-02
-2.893230132758617401e-02
-8.615233935415744781e-03
-1.632015258073806763e-01
-2.174013257026672363e-01
-1.565248519182205200e-01
-1.623630523681640625e-01
5.887521430850028992e-02
-4.209581238683313131e-04
-9.848663583397865295e-03
-5.676456540822982788e-02
5.464601144194602966e-02
2.999374084174633026e-02
-2.001746557652950287e-02
7.518067955970764160e-02
-7.442723214626312256e-02
-5.489987879991531372e-02
9.931237995624542236e-02
7.148188352584838867e-02
9.326101094484329224e-02
1.865940139396116138e-04
-5.607791990041732788e-02
-8.720454573631286621e-02
-2.039685696363449097e-01
-1.194051206111907959e-01
-2.179721295833587646e-01
-1.040323227643966675e-01
5.598222091794013977e-02
-9.725939482450485229e-02
1.614184826612472534e-01
4.262999631464481354e-03
1.128956899046897888e-01
3.105696849524974823e-02
2.860218519344925880e-03
-1.532146036624908447e-01
-2.142468690872192383e-01
-1.143511533737182617e-01
-2.487042099237442017e-01
8.056027442216873169e-02
2.242126464843750000e-01
-6.224007345736026764e-03
1.881507039070129395e-01
6.339365988969802856e-02
-1.237198058515787125e-02
1.124418713152408600e-02
1.914164796471595764e-02
-1.106555536389350891e-01
-8.685246855020523071e-02
9.422411769628524780e-02
1.830635592341423035e-02
1.452527567744255066e-02
4.092878848314285278e-02
-9.368858486413955688e-02
4.982453305274248123e-03
6.079456955194473267e-02
1.378259211778640747e-01
7.003217935562133789e-02
-1.556096225976943970e-01
2.241423726081848145e-02
-1.203177124261856079e-01
-1.031203046441078186e-01
-3.067122586071491241e-02
-9.916296228766441345e-03
5.898285284638404846e-02
-6.186257675290107727e-02
1.986961998045444489e-02
-6.226911768317222595e-02
-4.754827171564102173e-02
-3.725328296422958374e-02
-7.102625072002410889e-02
-8.920295536518096924e-02
-1.386247128248214722e-01
-3.629393875598907471e-02
-8.629406243562698364e-02
-5.809240788221359253e-02
-2.975743450224399567e-02
2.002824284136295319e-02
7.905375212430953979e-02
-6.204380840063095093e-02
4.622984677553176880e-02
-2.975328825414180756e-02
5.957247689366340637e-02
-3.332062438130378723e-02
1.408679485321044922e-01
4.966618865728378296e-02
1.107463613152503967e-01
-5.195181444287300110e-02
-2.300111204385757446e-02
-1.721515357494354248e-01
-1.537857055664062500e-01
-1.007978916168212891e-01
-1.640705913305282593e-01
-1.787853389978408813e-01
2.421035245060920715e-02
4.392180219292640686e-02
1.042776405811309814e-01
-7.716583088040351868e-03
-1.079630292952060699e-02
-5.567047372460365295e-02
-5.068432539701461792e-02
-1.652505397796630859e-01
-1.625003665685653687e-01
9.400249458849430084e-03
-2.889366447925567627e-01
5.131085589528083801e-02
8.640451729297637939e-02
-1.130603700876235962e-01
-6.937157362699508667e-02
-3.683140501379966736e-02
1.125366240739822388e-01
1.047434657812118530e-01
5.644721537828445435e-02
8.556755632162094116e-02
-8.673243224620819092e-02
-1.601010859012603760e-01
-3.589079976081848145e-01
-4.874336421489715576e-01
-1.152382045984268188e-01
-3.026792705059051514e-01
1.939687579870223999e-01
2.699455916881561279e-01
1.090683490037918091e-01
3.002060353755950928e-01
-3.401290252804756165e-02
-1.026158779859542847e-01
-8.054387569427490234e-02
-8.882239460945129395e-02
-1.505742818117141724e-01
-1.480279117822647095e-01
7.942978292703628540e-02
-2.171646952629089355e-01
-1.573080569505691528e-02
3.063555806875228882e-02
-1.280110925436019897e-01
-1.708902567625045776e-01
1.790114194154739380e-01
-3.036021813750267029e-02
2.217024862766265869e-01
1.216884553432464600e-01
4.431789368391036987e-02
6.722770631313323975e-02
-6.795392930507659912e-02
5.987082840874791145e-04
-5.636517889797687531e-04
-2.545893937349319458e-02
-1.111309379339218140e-01
-5.974236410111188889e-03
7.998999953269958496e-02
-1.155261602252721786e-02
-4.406892508268356323e-02
-1.579074747860431671e-02
2.373049594461917877e-02
-1.533251954242587090e-03
6.342454999685287476e-02
2.615412697196006775e-02
1.723189651966094971e-02
-2.027119277045130730e-03
-5.540443956851959229e-02
-2.622330747544765472e-02
6.960705667734146118e-02
2.055284008383750916e-02
-2.579142525792121887e-02
1.133323647081851959e-02
-5.026785656809806824e-02
6.800696253776550293e-02
-7.414702326059341431e-02
-5.887569114565849304e-02
-3.838250413537025452e-02
4.203329980373382568e-02
-8.134064823389053345e-02
7.099553197622299194e-02
-5.812493339180946350e-02
-5.203592777252197266e-02
3.770372644066810608e-02
7.232771813869476318e-02
-7.456681877374649048e-02
-4.647261276841163635e-02
-1.326547935605049133e-02
4.844657704234123230e-02
-7.208861410617828369e-02
-1.137296203523874283e-03
-7.981973141431808472e-02
-2.721021510660648346e-02
-5.697300657629966736e-02
-4.614864289760589600e-02
1.941985567100346088e-03
-6.696684658527374268e-02
-3.207708522677421570e-02
-6.515117734670639038e-02
-6.984550505876541138e-02
4.987897351384162903e-02
-3.255458548665046692e-02
-6.349847465753555298e-02
-6.569699943065643311e-02
-4.364661406725645065e-03
8.681635372340679169e-03
-7.097288966178894043e-02
-5.804586689919233322e-03
-5.514443293213844299e-02
7.318695541471242905e-03
-8.176589757204055786e-02
-3.136248886585235596e-02
-7.753347512334585190e-03
4.139687865972518921e-02
4.622624814510345459e-02
5.940882116556167603e-02
-6.492786109447479248e-02
6.448320299386978149e-02
-7.901599630713462830e-03
-7.331857085227966309e-02
5.760748684406280518e-02
8.138234913349151611e-02
-1.701683923602104187e-02
4.820904135704040527e-02
-3.902293741703033447e-02
-6.265499442815780640e-02
4.168409109115600586e-02
-7.840085029602050781e-02
2.630071528255939484e-02
-1.022676564753055573e-02
-6.855027377605438232e-02
6.655990146100521088e-03
-2.190549299120903015e-02
5.797056853771209717e-02
7.024536281824111938e-02
6.015054881572723389e-02
-5.009962990880012512e-02
-7.234010100364685059e-02
-6.224831193685531616e-02
-6.956454366445541382e-02
-4.754061251878738403e-02
1.372693758457899094e-02
7.309448719024658203e-02
7.659785449504852295e-02
-8.232007175683975220e-02
-3.865011036396026611e-02
1.111079286783933640e-02
3.595995530486106873e-02
-4.398924857378005981e-02
-6.636751443147659302e-02
8.363708853721618652e-03
4.639771953225135803e-02
-3.568384423851966858e-02
5.072478088550269604e-04
3.946058079600334167e-02
7.095560431480407715e-02
-7.635256648063659668e-02
-2.905127964913845062e-02
-2.643114887177944183e-02
-4.537634924054145813e-02
-7.679568603634834290e-03
8.824915438890457153e-02
6.010406464338302612e-02
-1.050630491226911545e-02
-1.423199288547039032e-02
-2.365779131650924683e-02
-7.330706715583801270e-02
-7.856436818838119507e-02
-2.826853096485137939e-02
-4.536980763077735901e-02
-5.375371128320693970e-02
8.412976749241352081e-03
-4.760694876313209534e-02
-5.781913641840219498e-03
4.117488861083984375e-02
2.921240217983722687e-02
1.912716031074523926e-02
-2.175859548151493073e-02
-8.128441870212554932e-02
-4.857042059302330017e-02
-4.143812134861946106e-02
-5.804570019245147705e-02
-6.073254626244306564e-03
8.090027421712875366e-02
-4.959043487906455994e-02
-6.183234974741935730e-02
5.499068647623062134e-02
-4.048805683851242065e-02
-2.623096574097871780e-03
3.679564222693443298e-02
-3.511820733547210693e-02
2.658084221184253693e-02
-7.691319286823272705e-02
-7.015592604875564575e-02
2.290793322026729584e-02
6.788370758295059204e-02
-6.815367192029953003e-02
5.282418057322502136e-02
-7.326000370085239410e-03
-3.670895472168922424e-02
-4.859998822212219238e-02
2.786541730165481567e-02
7.950629293918609619e-02
1.096757780760526657e-02
-1.907606236636638641e-02
6.706591695547103882e-02
5.388269573450088501e-02
-4.405197221785783768e-03
-1.248198654502630234e-02
8.189515210688114166e-03
-6.566561758518218994e-02
-3.426910936832427979e-02
-7.419999688863754272e-02
4.484378546476364136e-02
-1.968044554814696312e-03
3.677275031805038452e-02
-5.868142843246459961e-02
-1.827659755945205688e-01
-1.476420182734727859e-02
6.946854409761726856e-04
-1.778968125581741333e-01
-1.968883574008941650e-01
-6.686430424451828003e-02
-1.512727700173854828e-02
-1.403571814298629761e-01
-8.086673170328140259e-02
1.163674518465995789e-01
3.809513524174690247e-02
-1.165491342544555664e-01
-1.061326488852500916e-01
-5.669259279966354370e-02
5.869493907084688544e-05
-8.128169178962707520e-02
-1.171626225113868713e-01
5.272271856665611267e-02
3.669578433036804199e-01
-1.038285195827484131e-01
-3.183111250400543213e-01
1.451081186532974243e-01
-5.543400719761848450e-02
-4.741678759455680847e-02
5.714592058211565018e-03
5.654390901327133179e-02
9.379684180021286011e-02
-3.306046128273010254e-03
9.435028582811355591e-02
2.603845670819282532e-02
3.920062631368637085e-02
-7.771033793687820435e-02
1.118505373597145081e-01
-1.361576914787292480e-01
-1.144087612628936768e-01
3.727609291672706604e-02
-1.274794340133666992e-01
-2.713297009468078613e-01
-1.069303080439567566e-01
-3.885993361473083496e-02
-1.927190572023391724e-01
-1.809350699186325073e-01
-5.538485944271087646e-03
-3.071940504014492035e-02
-4.769027978181838989e-02
-1.459246780723333359e-02
-1.204180717468261719e-01
2.233415096998214722e-02
9.260801598429679871e-04
-9.699170477688312531e-03
-9.567274898290634155e-02
9.965210407972335815e-02
1.106242239475250244e-01
-1.370391342788934708e-02
-5.016564577817916870e-02
2.513833045959472656e-01
1.940102130174636841e-01
-1.128369346261024475e-01
-7.651953399181365967e-02
1.504612565040588379e-01
9.415037930011749268e-02
6.936188321560621262e-03
-3.373178467154502869e-02
-7.611901033669710159e-03
1.612487137317657471e-01
1.358453035354614258e-01
-9.449765831232070923e-02
-9.418029338121414185e-02
3.390333149582147598e-04
1.786577105522155762e-01
-6.400218605995178223e-02
3.386729583144187927e-02
-2.976269423961639404e-01
-2.721937000751495361e-02
-1.944304257631301880e-02
-2.740453183650970459e-01
-2.474720627069473267e-01
1.374421268701553345e-01
-1.302247196435928345e-01
5.809286981821060181e-02
4.300377890467643738e-02
-4.889737349003553391e-03
-2.147284299135208130e-01
-9.965043514966964722e-02
8.594939857721328735e-02
-1.417392194271087646e-01
-2.633377313613891602e-01
1.158240288496017456e-01
-9.179016202688217163e-02
-2.099923491477966309e-01
3.348090946674346924e-01
5.033269524574279785e-01
1.547735780477523804e-01
-1.728234589099884033e-01
1.318942308425903320e-01
3.390623033046722412e-01
8.737213164567947388e-02
-3.642818331718444824e-01
-2.827874720096588135e-01
2.606782317161560059e-01
2.582183182239532471e-01
-2.924804389476776123e-01
-2.568682134151458740e-01
2.667521536350250244e-01
3.940350413322448730e-01
-1.901857256889343262e-01
1.883359812200069427e-02
8.308707922697067261e-02
1.743614375591278076e-01
-1.868138611316680908e-01
-1.992981731891632080e-01
2.192760109901428223e-01
-6.059512961655855179e-03
-6.538404524326324463e-02
3.160706162452697754e-02
-1.860337406396865845e-01
-2.451455295085906982e-01
-3.366124117746949196e-03
2.064741104841232300e-01
1.343458145856857300e-01
-2.349653989076614380e-01
-8.675480633974075317e-02
1.205438375473022461e-01
-1.708777695894241333e-01
-5.491017177700996399e-02
4.373640567064285278e-02
2.165008783340454102e-01
1.484999507665634155e-01
-1.088043302297592163e-01
1.043012738227844238e-01
6.738349795341491699e-02
2.617422118782997131e-02
-8.078026026487350464e-02
1.535750646144151688e-02
8.068775385618209839e-02
4.433966055512428284e-02
6.447742879390716553e-02
-4.369205981492996216e-02
-3.342843055725097656e-02
1.750070415437221527e-02
-1.913628727197647095e-02
-5.989854782819747925e-02
-8.161444962024688721e-02
1.502808481454849243e-01
-9.566240757703781128e-02
7.047260552644729614e-02
1.738556474447250366e-01
1.338024344295263290e-02
9.375878726132214069e-04
-1.410795599222183228e-01
-4.934649541974067688e-02
-2.040239721536636353e-01
-1.645302772521972656e-01
-2.105146646499633789e-01
1.025701537728309631e-01
1.757059246301651001e-01
1.224466934800148010e-01
1.579755097627639771e-01
-1.190155092626810074e-02
-1.896241679787635803e-02
-2.771584391593933105e-01
-2.727276682853698730e-01
-2.294297963380813599e-01
-1.650413870811462402e-01
1.956252306699752808e-01
-2.833603620529174805e-01
2.178206294775009155e-01
2.884196341037750244e-01
4.796856269240379333e-02
-3.013549186289310455e-02
3.981474414467811584e-02
-8.768463879823684692e-02
6.438717246055603027e-02
1.480710357427597046e-01
4.903651773929595947e-02
6.390439718961715698e-02
-1.797077246010303497e-02
2.023115009069442749e-02
-6.438748538494110107e-02
5.024634674191474915e-02
2.969013527035713196e-02
1.242315173149108887e-01
-4.521240293979644775e-02
1.012972965836524963e-01
9.831964969635009766e-03
-9.172687679529190063e-02
9.920273907482624054e-03
-7.093889266252517700e-02
8.125786553137004375e-04
5.719434935599565506e-03
-4.561673849821090698e-02
9.061810374259948730e-02
6.329226493835449219e-02
3.126811608672142029e-02
8.830709010362625122e-02
-9.270990639925003052e-02
-1.120685860514640808e-01
-6.361725181341171265e-02
-1.025558710098266602e-01
-3.586786985397338867e-02
-1.662957482039928436e-02
2.990433759987354279e-02
7.766164839267730713e-02
-8.339216560125350952e-02
-2.900083921849727631e-02
-4.931443929672241211e-02
-1.044128276407718658e-02
-1.783495843410491943e-01
2.961916476488113403e-02
1.494048386812210083e-01
1.956189237534999847e-02
-2.252532728016376495e-02
-1.014967565424740314e-03
-7.844635983929038048e-04
-1.519389450550079346e-01
-2.123448550701141357e-01
-8.408243209123611450e-02
-5.867726355791091919e-02
-1.202837452292442322e-01
-2.443713834509253502e-03
3.481316268444061279e-01
-1.879833452403545380e-02
-7.136412709951400757e-02
-4.617921262979507446e-02
5.248697102069854736e-02
6.259059906005859375e-02
-6.559705734252929688e-02
-5.929549038410186768e-02
-1.951279491186141968e-01
-2.843634225428104401e-02
2.069748342037200928e-01
-5.011961236596107483e-02
-1.222593858838081360e-01
-6.467761937528848648e-03
-4.577875882387161255e-02
4.221136868000030518e-02
2.177201770246028900e-02
9.746041148900985718e-02
-3.631921485066413879e-02
-1.594293862581253052e-01
-2.759562730789184570e-01
-4.876596331596374512e-01
-5.345763564109802246e-01
-3.592374324798583984e-01
-2.595949172973632812e-01
9.371401369571685791e-02
-2.977594137191772461e-01
1.585584431886672974e-01
-4.604810103774070740e-02
-6.412401795387268066e-02
-6.891982164233922958e-03
8.853927254676818848e-02
-7.995312660932540894e-02
-1.593584120273590088e-01
1.486776471138000488e-01
-7.687405496835708618e-02
1.178090460598468781e-02
1.291525959968566895e-01
-6.400537490844726562e-02
-1.623584479093551636e-01
-1.002281010150909424e-01
-1.171100512146949768e-01
-7.136389147490262985e-03
1.115781962871551514e-01
1.396781504154205322e-01
7.568813860416412354e-02
-8.805658668279647827e-02
-1.196917220950126648e-01
-1.666037440299987793e-01
-1.003472581505775452e-01
-2.758181653916835785e-02
-1.581829190254211426e-01
-6.392659270204603672e-04
1.117443386465311050e-02
-1.265567690134048462e-01
-2.770610898733139038e-02
-6.598199903964996338e-02
-4.617899656295776367e-03
4.194155707955360413e-02
3.045851737260818481e-02
9.372729808092117310e-03
3.207283839583396912e-02
-6.839198619127273560e-02
1.933902315795421600e-02
-4.489679262042045593e-02
-9.229931980371475220e-02
-1.451817005872726440e-01
-1.329441964626312256e-01
6.333713233470916748e-02
7.158769667148590088e-02
-2.274898579344153404e-03
-3.476793318986892700e-02
6.447592377662658691e-02
1.093213334679603577e-01
-1.583210825920104980e-01
-5.151859670877456665e-02
1.667539924383163452e-01
-1.877783089876174927e-01
-1.755121499300003052e-01
-1.361203193664550781e-01
1.132319718599319458e-01
4.923344030976295471e-02
6.263104081153869629e-02
-2.089358121156692505e-01
4.557820409536361694e-02
3.870578408241271973e-01
-2.342156767845153809e-01
-2.092145681381225586e-01
-1.087115854024887085e-01
-7.735262811183929443e-02
4.367675632238388062e-02
-8.389429748058319092e-02
1.007125601172447205e-01
-4.750547185540199280e-02
7.669360935688018799e-02
1.570442877709865570e-02
9.561213105916976929e-02
8.365481346845626831e-02
-3.589211031794548035e-03
-1.987993158400058746e-02
5.856141820549964905e-02
-7.962717860937118530e-02
-1.212644428014755249e-01
-1.010519191622734070e-01
-7.663848251104354858e-02
2.182491309940814972e-02
-5.600700527429580688e-02
1.074825897812843323e-01
2.384049259126186371e-02
-5.836838856339454651e-02
-8.597990870475769043e-02
-1.259382814168930054e-02
6.387624889612197876e-02
-4.740710556507110596e-02
3.538031131029129028e-02
3.881599009037017822e-02
1.386270765215158463e-02
-1.353371329605579376e-02
8.706974983215332031e-02
1.937323436141014099e-02
2.298546954989433289e-02
-2.866321988403797150e-02
7.362230867147445679e-02
3.362612798810005188e-02
7.544754445552825928e-02
5.837243422865867615e-02
3.710985928773880005e-02
7.455979008227586746e-03
-1.332774554612115026e-04
-4.221725463867187500e-02
-3.304250538349151611e-02
1.488849371671676636e-01
8.400187641382217407e-02
9.432275593280792236e-02
3.379003331065177917e-02
-4.172273352742195129e-02
4.103619605302810669e-02
-2.598050236701965332e-01
-1.162753999233245850e-01
2.408394776284694672e-02
-3.090153634548187256e-01
-2.191506624221801758e-01
-2.530172169208526611e-01
5.121942609548568726e-02
7.621167600154876709e-02
6.499452982097864151e-03
-5.885450169444084167e-02
9.955701977014541626e-02
1.417542845010757446e-01
-7.094554603099822998e-02
-8.739458024501800537e-02
-5.179916694760322571e-02
-1.226922422647476196e-01
-6.250976026058197021e-02
-3.331992775201797485e-02
-1.844171881675720215e-01
-4.853826761245727539e-02
2.264213375747203827e-02
1.223412901163101196e-01
1.198178753256797791e-01
-9.897184371948242188e-02
1.703507453203201294e-02
7.530777901411056519e-02
2.146115154027938843e-01
-3.548659682273864746e-01
-1.635025888681411743e-01
2.547200024127960205e-01
-4.295543134212493896e-01
-3.545265793800354004e-01
-3.856742084026336670e-01
1.242998242378234863e-01
1.646427512168884277e-01
1.188161373138427734e-01
9.717825055122375488e-02
1.535056084394454956e-01
1.937996894121170044e-01
-1.462097186595201492e-02
8.654605597257614136e-02
6.744154263287782669e-03
4.034764133393764496e-03
-5.924764648079872131e-02
-9.631136804819107056e-02
-2.345552593469619751e-01
-1.383831351995468140e-01
-7.977439463138580322e-02
-3.515431657433509827e-02
2.286705933511257172e-02
-1.438688784837722778e-01
5.244189500808715820e-02
3.265027701854705811e-02
1.072999089956283569e-01
-2.681504562497138977e-02
6.500662863254547119e-02
1.255485564470291138e-01
-1.106158792972564697e-01
-4.873606190085411072e-02
-3.126501291990280151e-02
9.318766742944717407e-02
1.140896603465080261e-01
1.397080533206462860e-02
-6.182264909148216248e-02
-5.246390774846076965e-02
7.580369710922241211e-02
-7.746593654155731201e-02
1.765665411949157715e-02
-7.609871029853820801e-02
-3.160165995359420776e-02
6.079126149415969849e-02
5.730316787958145142e-02
-1.549529880285263062e-01
-1.190917491912841797e-01
-7.563874591141939163e-03
-2.928549647331237793e-01
-1.759276986122131348e-01
6.841624155640602112e-03
-1.167055964469909668e-01
4.593167826533317566e-02
1.702242903411388397e-02
-5.952557176351547241e-02
-8.024465292692184448e-02
-1.726398020982742310e-01
1.868005394935607910e-01
1.265684962272644043e-01
-2.150257974863052368e-01
6.246808171272277832e-02
-4.735569283366203308e-02
-5.549385678023099899e-03
-9.070642292499542236e-02
-1.665622740983963013e-01
-2.340507507324218750e-01
-3.751239553093910217e-02
-2.193073509261012077e-03
-3.236419558525085449e-01
2.570366263389587402e-01
-2.326016873121261597e-01
-1.472732424736022949e-01
-4.844111949205398560e-02
-1.095117651857435703e-03
-1.604175567626953125e-02
-1.188972517848014832e-01
-3.235582634806632996e-02
-6.479359231889247894e-03
-3.684480860829353333e-02
5.675559118390083313e-02
-4.963736236095428467e-02
-9.103519469499588013e-02
-8.081328123807907104e-02
6.899479776620864868e-02
1.962967030704021454e-02
-2.160492353141307831e-02
6.097330152988433838e-02
-1.239049527794122696e-02
2.261270955204963684e-02
7.185409218072891235e-02
-2.774457074701786041e-02
3.434943780303001404e-02
4.773342981934547424e-02
-5.832121521234512329e-02
6.160012632608413696e-02
-8.766879886388778687e-02
1.503812521696090698e-01
-1.376354694366455078e-02
8.043555170297622681e-02
8.473517000675201416e-02
1.400132942944765091e-02
-8.223670721054077148e-02
-2.948093600571155548e-02
-1.986297033727169037e-02
-1.341042220592498779e-01
-6.454756110906600952e-02
-9.284406155347824097e-02
-9.065547585487365723e-02
-1.077283844351768494e-01
-1.415254473686218262e-01
-7.652100920677185059e-02
-2.663669884204864502e-01
-1.112822815775871277e-01
4.138638079166412354e-02
-5.348656699061393738e-02
-1.069991514086723328e-01
8.991876244544982910e-02
5.088045448064804077e-02
1.681557297706604004e-01
-2.683874070644378662e-01
9.156662225723266602e-02
1.660887598991394043e-01
-1.978111565113067627e-01
4.654657244682312012e-01
2.034235373139381409e-02
-2.029740959405899048e-01
-2.987490594387054443e-01
-2.560595571994781494e-01
-1.357398331165313721e-01
-2.497464567422866821e-01
1.517902687191963196e-02
-1.493204981088638306e-01
-1.534778773784637451e-01
4.579925909638404846e-02
-5.412837490439414978e-02
9.106480330228805542e-02
5.243621021509170532e-02
-1.003416478633880615e-01
-1.994724124670028687e-01
-1.112203225493431091e-01
8.536359295248985291e-03
-7.967409491539001465e-02
-1.090036779642105103e-01
2.685604803264141083e-02
2.635700702667236328e-01
-3.576755896210670471e-02
-5.206972956657409668e-01
4.116684496402740479e-01
1.016233637928962708e-01
-3.245628178119659424e-01
3.864175081253051758e-01
-4.957084953784942627e-01
-1.419876813888549805e-01
-1.939926296472549438e-01
-3.397714197635650635e-01
-1.588754504919052124e-01
-2.695938944816589355e-01
-1.697892695665359497e-01
-1.001085117459297180e-01
-2.292167395353317261e-01
-1.637695878744125366e-01
-2.154575288295745850e-02
-8.846087008714675903e-02
-2.064580321311950684e-01
-3.575051575899124146e-02
-4.311488568782806396e-02
-1.911996304988861084e-01
8.756544440984725952e-02
-5.752069875597953796e-02
-1.160538941621780396e-01
2.082123309373855591e-01
5.570204462856054306e-03
-3.195941075682640076e-02
-9.901235997676849365e-02
8.897713269107043743e-04
-6.483048200607299805e-02
8.234308660030364990e-02
-9.823842346668243408e-02
-7.612252980470657349e-02
3.431032225489616394e-02
4.112380743026733398e-02
8.588049560785293579e-03
6.794970482587814331e-02
-5.700681731104850769e-02
-3.658827766776084900e-02
4.170298110693693161e-03
-2.785578742623329163e-02
7.439788430929183960e-02
7.088334299623966217e-03
-6.344290915876626968e-03
-1.875020563602447510e-02
-2.608072012662887573e-02
-1.719457060098648071e-01
-1.768854707479476929e-01
-1.983180344104766846e-01
-6.955850869417190552e-02
-1.433788090944290161e-01
-1.534115225076675415e-01
-1.394293159246444702e-01
-2.289843559265136719e-02
1.615099050104618073e-02
1.076216921210289001e-01
-6.515053659677505493e-02
-2.161294966936111450e-02
-3.138391068205237389e-03
-6.845410913228988647e-02
1.129499375820159912e-01
-1.490457952022552490e-01
-1.698143929243087769e-01
3.520730882883071899e-02
5.679899826645851135e-02
6.419982016086578369e-02
9.589082747697830200e-02
1.462973654270172119e-01
1.278634369373321533e-02
5.628192424774169922e-02
-1.111091747879981995e-01
-7.375626266002655029e-02
5.425590276718139648e-02
1.368100382387638092e-02
-1.154887769371271133e-02
1.576896384358406067e-02
-2.822840213775634766e-02
6.298639625310897827e-02
5.424943752586841583e-03
2.193708717823028564e-02
-6.086527928709983826e-02
-1.474575996398925781e-01
-3.508615866303443909e-02
-7.362028211355209351e-02
-4.931682720780372620e-02
-9.161940217018127441e-02
-5.170364305377006531e-02
-4.004175215959548950e-02
2.718892134726047516e-02
1.024275645613670349e-02
-4.375684261322021484e-02
-7.923658192157745361e-02
5.484474822878837585e-02
-8.871186524629592896e-02
1.876439340412616730e-02
-3.833826631307601929e-02
3.721472248435020447e-02
-1.092221140861511230e-01
-5.110141262412071228e-02
1.308877859264612198e-02
-8.029964752495288849e-03
3.380397707223892212e-02
-1.097906157374382019e-01
-5.317781120538711548e-03
-8.571294136345386505e-03
8.866255730390548706e-02
1.049684211611747742e-01
5.220754072070121765e-02
7.284061517566442490e-03
-3.326793387532234192e-02
-5.699583142995834351e-02
-3.986527770757675171e-02
-3.596032038331031799e-02
2.005858579650521278e-03
1.581590622663497925e-02
-6.461776793003082275e-02
-2.635861337184906006e-01
3.334577381610870361e-02
-7.927356660366058350e-02
-1.344642937183380127e-01
-2.995796501636505127e-02
7.206261903047561646e-02
-8.184065669775009155e-02
1.530652344226837158e-01
-4.490936174988746643e-02
-6.637369096279144287e-02
-1.177649348974227905e-01
-1.330720037221908569e-01
-1.935880817472934723e-02
-1.270564943552017212e-01
9.313074499368667603e-02
-2.576421946287155151e-02
-3.393089771270751953e-02
1.441676765680313110e-01
4.539358988404273987e-02
3.395862178876996040e-03
9.942185878753662109e-02
5.314929038286209106e-02
-8.066214621067047119e-02
-2.226920425891876221e-01
-7.423543930053710938e-02
-2.642624080181121826e-02
-8.944962918758392334e-02
-5.544016510248184204e-02
1.121826693415641785e-01
1.841671317815780640e-01
4.400860518217086792e-02
-1.520130969583988190e-02
-7.256785780191421509e-02
-5.860803648829460144e-02
3.032849356532096863e-02
-9.847126901149749756e-02
-1.697848439216613770e-01
-7.133027166128158569e-02
4.253518953919410706e-02
2.791617531329393387e-03
-1.303871124982833862e-01
9.927595406770706177e-02
1.050347387790679932e-01
7.375046610832214355e-02
1.272514909505844116e-01
2.214841544628143311e-01
1.583205759525299072e-01
8.680168539285659790e-02
6.490261852741241455e-02
-2.810627454891800880e-03
-2.674320340156555176e-01
-1.348503828048706055e-01
-2.196891605854034424e-02
-1.453191190958023071e-01
-2.890132181346416473e-02
7.384167984127998352e-03
4.596994817256927490e-02
9.846995025873184204e-02
1.704061590135097504e-02
1.287177298218011856e-02
8.679359406232833862e-02
7.991495542228221893e-03
6.363749969750642776e-03
-4.553120210766792297e-02
6.437555700540542603e-02
-7.365024834871292114e-02
-6.615726649761199951e-02
-3.206130862236022949e-02
-4.717838019132614136e-02
-5.669645220041275024e-02
-4.251913167536258698e-03
5.572571977972984314e-02
-7.963573187589645386e-02
-3.459998965263366699e-02
-2.410068735480308533e-02
-1.147023364901542664e-01
2.357115224003791809e-02
-3.888061642646789551e-02
-1.177037507295608521e-02
5.026991665363311768e-02
-1.171315684914588928e-01
9.402829408645629883e-02
3.708076849579811096e-02
-5.600834637880325317e-02
-2.357191406190395355e-02
-1.605965197086334229e-01
6.740546226501464844e-02
-4.314078483730554581e-03
-1.353627145290374756e-01
-5.894710868597030640e-02
1.866819709539413452e-02
1.799237579107284546e-01
-1.207019835710525513e-01
1.726898699998855591e-01
-1.130040511488914490e-01
6.109060347080230713e-02
3.097872436046600342e-02
-2.241907864809036255e-01
1.141677843406796455e-03
-6.201509386301040649e-02
-9.671816974878311157e-02
2.728935144841670990e-02
3.224716987460851669e-03
-3.433588892221450806e-02
-8.075191080570220947e-02
4.462689533829689026e-02
-9.460343979299068451e-03
1.435060799121856689e-01
3.314508497714996338e-02
3.966297209262847900e-02
7.474154978990554810e-02
7.985844276845455170e-03
-1.792418956756591797e-02
-4.260034114122390747e-02
4.827263951301574707e-02
-9.478098899126052856e-02
-1.864360831677913666e-02
2.116639167070388794e-02
-3.692678408697247505e-03
6.365743279457092285e-02
5.532892048358917236e-02
3.441283851861953735e-02
2.953340671956539154e-02
4.922435060143470764e-02
1.469564344733953476e-02
8.176663541235029697e-04
1.135201677680015564e-01
-6.635669618844985962e-02
-2.733363583683967590e-02
-1.591446623206138611e-02
-1.587461493909358978e-02
-1.681559905409812927e-02
1.313711144030094147e-02
5.781329236924648285e-03
-7.060503214597702026e-02
1.571379788219928741e-02
3.807507082819938660e-02
7.661825418472290039e-02
-1.960759609937667847e-02
1.476146560162305832e-02
7.349345833063125610e-02
5.863197147846221924e-02
1.582435704767704010e-02
-1.608209758996963501e-01
1.814819425344467163e-01
1.477601826190948486e-01
4.533376172184944153e-02
1.374371647834777832e-01
2.569313347339630127e-02
1.927513442933559418e-02
-1.460648477077484131e-01
-8.156920969486236572e-02
-5.225203931331634521e-02
-5.732596665620803833e-02
8.167648687958717346e-03
-1.348103135824203491e-01
8.971067517995834351e-02
-4.415345564484596252e-02
3.068901412189006805e-02
-9.116622619330883026e-03
-5.066528916358947754e-02
6.632313877344131470e-02
-6.127171963453292847e-02
-1.295633316040039062e-01
-1.939873397350311279e-02
-1.081450581550598145e-01
-1.835797131061553955e-01
-8.601757884025573730e-02
1.882960461080074310e-02
7.319229096174240112e-02
-3.480193614959716797e-01
2.439719289541244507e-01
3.208710253238677979e-02
-4.774498753249645233e-03
1.686163246631622314e-01
-2.230774760246276855e-01
6.344065070152282715e-02
-2.028125822544097900e-01
-1.943818479776382446e-01
-5.132919549942016602e-02
-1.122822165489196777e-01
-5.377503111958503723e-02
-1.845422945916652679e-02
-8.481838554143905640e-02
-2.931992057710886002e-03
2.428102679550647736e-02
-1.037732511758804321e-01
-1.229076385498046875e-01
1.332176923751831055e-01
6.671073287725448608e-02
-6.398984044790267944e-02
1.448615342378616333e-01
-6.106904149055480957e-02
-8.436148613691329956e-02
-2.790296263992786407e-02
1.666630618274211884e-02
-1.259140968322753906e-01
1.016736254096031189e-01
-1.714645326137542725e-02
3.687779232859611511e-02
4.408307373523712158e-02
-4.266927391290664673e-02
-5.535572022199630737e-02
-3.632511943578720093e-03
9.599156677722930908e-03
-4.978076368570327759e-02
5.376191809773445129e-02
-4.237710312008857727e-02
-2.497987262904644012e-02
-2.277891710400581360e-02
-3.856211528182029724e-02
1.281542587094008923e-03
-5.221895128488540649e-02
-1.611697301268577576e-02
2.233115397393703461e-02
-2.646845579147338867e-02
-8.484435826539993286e-02
-5.806289240717887878e-02
2.384797856211662292e-02
1.651305519044399261e-02
1.165797486901283264e-01
-2.584340795874595642e-02
-2.386806160211563110e-02
-3.779095411300659180e-02
-8.123253285884857178e-02
6.595448404550552368e-02
8.013687282800674438e-02
-1.576501131057739258e-02
1.002441253513097763e-02
-1.024076938629150391e-01
5.092304572463035583e-02
1.081238538026809692e-01
-4.049840942025184631e-02
-1.020877510309219360e-01
-4.924931004643440247e-02
1.525403857231140137e-01
-1.192097663879394531e-01
-1.848330497741699219e-01
-2.662305831909179688e-01
2.029772996902465820e-01
1.172852218151092529e-01
7.520557940006256104e-02
4.504598677158355713e-02
6.121983751654624939e-02
-2.019513770937919617e-02
-2.108539687469601631e-03
4.797145351767539978e-02
7.182930409908294678e-02
1.351504120975732803e-02
9.482087194919586182e-02
1.043303906917572021e-01
-6.504175253212451935e-04
-2.890176884829998016e-02
-3.111880458891391754e-02
-8.899958431720733643e-02
-8.740913122892379761e-02
-1.139353290200233459e-01
-6.978004425764083862e-02
-1.682593375444412231e-01
-1.402170769870281219e-02
1.184797473251819611e-02
5.325224995613098145e-02
1.390719972550868988e-02
-7.823538035154342651e-03
-4.920426011085510254e-02
6.836818158626556396e-02
-4.683090373873710632e-02
3.775658831000328064e-02
-1.586545817553997040e-02
-1.133898347616195679e-01
-9.349119663238525391e-02
-8.191047608852386475e-02
-5.037967115640640259e-02
-4.615924507379531860e-02
6.214772164821624756e-02
-1.530796289443969727e-02
7.107181847095489502e-02
1.108272299170494080e-01
-5.517035350203514099e-02
3.489805012941360474e-02
-1.210700273513793945e-01
-5.550815258175134659e-03
-3.100056387484073639e-02
-5.352339893579483032e-02
2.054844982922077179e-02
-8.212697692215442657e-03
4.003875702619552612e-02
-8.712239563465118408e-02
6.631797179579734802e-03
9.575731307268142700e-02
-1.637612432241439819e-01
-2.174574881792068481e-01
-1.474932283163070679e-01
-6.762835197150707245e-03
-5.382714048027992249e-02
-1.849183626472949982e-02
1.966523937880992889e-02
-2.812549844384193420e-02
8.823882043361663818e-02
-1.138022243976593018e-01
-1.000040248036384583e-01
2.041105180978775024e-02
1.776973754167556763e-01
-2.846862748265266418e-02
6.581857800483703613e-03
-1.289355307817459106e-01
-2.032175213098526001e-01
-1.863676905632019043e-01
8.289731293916702271e-02
3.666202351450920105e-02
-1.377488765865564346e-02
-1.189681366086006165e-01
1.779326647520065308e-01
1.585963964462280273e-01
-1.788096874952316284e-01
-7.987523823976516724e-02
-1.075225174427032471e-01
-2.667943947017192841e-02
-1.256245095282793045e-02
-4.113608896732330322e-01
7.702069729566574097e-02
1.694234460592269897e-01
-3.171276301145553589e-02
1.157953287474811077e-03
1.661746762692928314e-02
1.306424587965011597e-01
-1.243103202432394028e-02
-1.383310854434967041e-01
-1.229193434119224548e-01
2.700237333774566650e-01
1.103268191218376160e-01
-1.786008104681968689e-02
-8.802288025617599487e-02
-7.101824879646301270e-02
-1.661590784788131714e-01
1.408675462007522583e-01
-1.430560369044542313e-02
-1.200598776340484619e-01
2.897844836115837097e-02
5.231441557407379150e-02
1.155821532011032104e-01
-1.099699065089225769e-01
5.476235970854759216e-02
5.530232191085815430e-02
-1.302992105484008789e-01
-3.640618873760104179e-03
-1.955186948180198669e-02
7.266141474246978760e-02
1.139496564865112305e-01
7.709716260433197021e-02
3.379529714584350586e-02
2.313931286334991455e-02
-3.046179004013538361e-02
1.936909556388854980e-02
-2.037759125232696533e-02
6.730230152606964111e-02
-3.316752240061759949e-02
6.745322793722152710e-02
5.224048346281051636e-02
1.812571287155151367e-02
-1.063245162367820740e-01
1.057209745049476624e-01
-1.196690499782562256e-01
-2.148678153753280640e-02
6.673307716846466064e-02
1.365965157747268677e-01
1.282203495502471924e-01
4.647797718644142151e-02
1.369644515216350555e-02
1.048211529850959778e-01
-8.654816448688507080e-02
1.179180294275283813e-01
-3.589387983083724976e-02
-1.344946324825286865e-01
-1.813476681709289551e-01
-2.139420211315155029e-01
-9.668592363595962524e-02
-2.295759320259094238e-02
3.407472968101501465e-01
-1.241187602281570435e-01
3.731940984725952148e-01
2.134582698345184326e-01
-4.444371163845062256e-01
-2.525492608547210693e-01
-3.014493286609649658e-01
-1.405681073665618896e-01
1.957176998257637024e-02
2.518879482522606850e-03
-4.038674756884574890e-02
9.418921172618865967e-02
-7.382483780384063721e-02
5.652531608939170837e-02
-5.262463167309761047e-02
-3.954868763685226440e-02
-3.042158111929893494e-02
5.947194248437881470e-02
-1.532412506639957428e-02
5.918643996119499207e-02
2.367423102259635925e-02
1.199201494455337524e-01
2.417416311800479889e-02
8.456595987081527710e-02
2.099786996841430664e-01
3.471233695745468140e-02
-2.221596986055374146e-02
3.098879940807819366e-02
1.098544746637344360e-01
-1.547715533524751663e-02
1.155634075403213501e-01
-6.037198752164840698e-02
-4.307209700345993042e-02
4.009323660284280777e-03
-8.042789995670318604e-02
6.148636341094970703e-02
7.118380814790725708e-02
-1.027139872312545776e-01
1.101273391395807266e-02
-2.014711685478687286e-02
-6.605290621519088745e-02
-9.373696893453598022e-02
-5.902171880006790161e-02
8.514845371246337891e-02
-8.926918730139732361e-03
-5.809001252055168152e-02
-1.401766240596771240e-01
9.895804338157176971e-03
-5.782506614923477173e-02
2.465370483696460724e-02
2.617460861802101135e-02
-5.162182450294494629e-02
-1.544348895549774170e-02
4.124528786633163691e-04
5.940492749214172363e-01
2.320271134376525879e-01
9.793061017990112305e-02
1.582128703594207764e-01
-2.630936205387115479e-01
-9.862822294235229492e-02
-3.109759390354156494e-01
-5.612321570515632629e-02
-1.095871850848197937e-01
6.629417650401592255e-03
-9.559933841228485107e-02
1.464267075061798096e-01
7.371407747268676758e-02
-2.032437920570373535e-01
9.113869816064834595e-02
-1.521440502256155014e-02
-9.445223957300186157e-02
-1.411760039627552032e-02
-3.047475516796112061e-01
-3.486494123935699463e-01
-1.276490092277526855e-01
-1.146972626447677612e-01
-7.214481383562088013e-02
-9.888194501399993896e-02
-1.025764793157577515e-01
5.839314684271812439e-02
-8.650647848844528198e-02
4.030143916606903076e-01
-1.771928220987319946e-01
1.443949639797210693e-01
-4.966778308153152466e-02
-4.098893404006958008e-01
-3.716607987880706787e-01
-4.398259520530700684e-01
8.541002124547958374e-02
5.384326726198196411e-02
-6.652389466762542725e-02
-1.797902286052703857e-01
1.543108075857162476e-01
4.303456470370292664e-02
-1.850966513156890869e-01
-1.163924038410186768e-01
-1.102549359202384949e-01
-8.406107127666473389e-02
1.390209496021270752e-01
-5.168305337429046631e-02
-3.992506861686706543e-01
1.501850225031375885e-02
-8.042072504758834839e-02
2.229318395256996155e-02
-1.522474288940429688e-01
1.129485443234443665e-01
8.669512718915939331e-02
1.323323845863342285e-01
-6.940117478370666504e-02
-1.184920221567153931e-01
-5.498150736093521118e-02
-2.754213660955429077e-02
-1.009723320603370667e-01
-1.465666443109512329e-01
-3.115167655050754547e-02
-4.522849619388580322e-02
-7.378756999969482422e-02
5.818327888846397400e-02
1.257961522787809372e-02
8.883855305612087250e-03
8.860624395310878754e-03
-6.102374941110610962e-02
1.194060873240232468e-02
3.033840795978903770e-03
-7.070114463567733765e-02
-3.115415759384632111e-02
2.867478877305984497e-02
-5.976888537406921387e-02
-2.373504824936389923e-02
-6.906523555517196655e-02
-5.643479153513908386e-02
1.569451019167900085e-02
-4.117502644658088684e-02
-9.366975724697113037e-02
-8.089201897382736206e-02
8.140555769205093384e-02
4.468670487403869629e-02
-1.585803031921386719e-01
4.959950223565101624e-02
-1.109784003347158432e-02
-1.817772239446640015e-01
4.866863414645195007e-02
9.166635572910308838e-02
-1.507483720779418945e-01
-8.674907684326171875e-02
6.726980209350585938e-02
-2.823764979839324951e-01
7.674261927604675293e-02
9.778155945241451263e-03
-2.090075463056564331e-01
5.408358201384544373e-02
-1.371095180511474609e-01
-3.808607161045074463e-02
6.216525286436080933e-02
-1.385715603828430176e-02
-2.516433410346508026e-02
2.387158013880252838e-02
-6.072300672531127930e-02
5.948161706328392029e-02
-2.297079190611839294e-02
-2.917601168155670166e-02
2.336676605045795441e-02
-2.810002490878105164e-02
-8.559083193540573120e-02
2.771642431616783142e-02
-4.302502423524856567e-02
-1.039336062967777252e-02
4.483458772301673889e-02
4.141161590814590454e-02
9.884089231491088867e-03
-1.569632813334465027e-02
-7.243862748146057129e-02
7.147776335477828979e-02
3.200265392661094666e-02
5.465137306600809097e-03
1.295309513807296753e-02
-4.698633030056953430e-02
7.251819223165512085e-02
7.620752602815628052e-02
-6.049837172031402588e-02
4.445909336209297180e-02
-3.265896812081336975e-03
-8.053087443113327026e-02
8.909916132688522339e-02
6.376034021377563477e-02
5.768752843141555786e-02
3.385132923722267151e-02
-1.782182790338993073e-02
-3.887492418289184570e-02
-6.720355898141860962e-02
-7.126133888959884644e-02
-2.241584705188870430e-03
-3.484217077493667603e-02
-1.495590507984161377e-01
7.219848036766052246e-02
-1.127132773399353027e-01
-3.383252769708633423e-02
-8.896154165267944336e-02
-3.094367682933807373e-02
3.127166330814361572e-01
-3.865336999297142029e-02
1.085579469799995422e-01
2.731476724147796631e-01
-2.036328911781311035e-01
-8.661600947380065918e-02
1.987680792808532715e-01
2.434780262410640717e-02
-1.314184516668319702e-01
8.484833687543869019e-02
-1.833679340779781342e-02
-1.794750690460205078e-01
6.580841541290283203e-02
-8.710794150829315186e-02
-7.213342189788818359e-02
-7.105397433042526245e-02
-4.708212241530418396e-02
4.008457064628601074e-02
-1.481770873069763184e-01
-1.262889504432678223e-01
7.700821757316589355e-02
-8.025114238262176514e-02
-8.806820958852767944e-02
-4.437087476253509521e-02
7.701915502548217773e-02
-1.132420450448989868e-01
1.065881997346878052e-01
1.428002864122390747e-01
-2.189164161682128906e-01
2.668186128139495850e-01
-5.143972486257553101e-02
-2.697365880012512207e-01
2.193787395954132080e-01
-1.321113407611846924e-01
-6.363841891288757324e-02
-1.676244586706161499e-01
-5.772762745618820190e-02
-1.550969034433364868e-01
-3.128292737528681755e-03
-1.350491046905517578e-01
-1.471790820360183716e-01
-2.008176036179065704e-02
-8.980743587017059326e-02
-1.030902750790119171e-02
-3.441084921360015869e-02
-2.061994671821594238e-01
4.311287775635719299e-02
8.115337044000625610e-02
-1.772753000259399414e-01
-8.601486682891845703e-02
4.244188964366912842e-02
-1.155939698219299316e-01
-5.562368780374526978e-03
-3.631373122334480286e-02
-3.754781931638717651e-02
1.193811371922492981e-01
2.428941056132316589e-02
-1.093927770853042603e-01
1.191778406500816345e-01
1.134838163852691650e-02
-4.184401035308837891e-02
6.317717954516410828e-03
-6.311725825071334839e-02
-5.653272569179534912e-02
-2.145489305257797241e-02
-2.474038116633892059e-02
7.869419455528259277e-02
6.650958210229873657e-02
-2.962084952741861343e-03
-4.842544347047805786e-02
-7.440061867237091064e-02
-1.142092645168304443e-01
-7.353620231151580811e-02
-1.427138596773147583e-01
-9.354864805936813354e-02
2.646468579769134521e-02
-1.448285132646560669e-01
-1.515049338340759277e-01
1.704801991581916809e-02
1.224920153617858887e-01
1.959053240716457367e-02
-8.886563032865524292e-02
1.750181987881660461e-02
-7.861281186342239380e-02
-1.676329076290130615e-01
-9.507512673735618591e-03
8.269671350717544556e-02
-4.855350032448768616e-02
-4.491483792662620544e-02
-1.894209720194339752e-02
-8.072821050882339478e-02
-6.694927811622619629e-02
-6.896281242370605469e-02
-1.624895632266998291e-01
1.424821019172668457e-01
8.409049361944198608e-02
-1.032406091690063477e-01
-7.187212258577346802e-02
2.612604945898056030e-02
-7.116568088531494141e-02
5.285109207034111023e-02
1.083612535148859024e-02
4.136829078197479248e-02
-3.189340978860855103e-02
4.945458844304084778e-03
7.313538342714309692e-02
-5.307350680232048035e-02
-3.725225850939750671e-02
-5.787775851786136627e-03
-1.811070591211318970e-01
-4.307983815670013428e-02
-6.199985742568969727e-02
-1.173741519451141357e-01
-1.887190043926239014e-01
-6.391877681016921997e-02
4.239378869533538818e-02
-7.098557800054550171e-02
-1.136644463986158371e-02
8.063312619924545288e-03
-1.031003594398498535e-01
-2.080550417304039001e-02
-7.430055178701877594e-03
-2.122539561241865158e-03
-9.593350440263748169e-02
1.540642231702804565e-01
-2.602373622357845306e-02
-5.678277462720870972e-02
8.495901525020599365e-02
1.461053341627120972e-01
-9.574384987354278564e-02
-1.342798918485641479e-01
1.214777529239654541e-01
6.791270524263381958e-02
1.262954529374837875e-02
-1.200946606695652008e-02
3.695504367351531982e-02
-8.693153411149978638e-02
1.055631488561630249e-01
3.378773108124732971e-02
-1.314457207918167114e-01
7.711435109376907349e-02
1.255952119827270508e-01
1.826371848583221436e-01
-4.697098210453987122e-02
-1.138246953487396240e-01
-2.726181596517562866e-02
-1.137196552008390427e-03
-1.492724418640136719e-01
-3.517936766147613525e-01
-2.488738857209682465e-02
-5.925184115767478943e-02
-8.957690745592117310e-02
3.115783818066120148e-02
-5.319309979677200317e-02
-2.164817005395889282e-01
-1.880158782005310059e-01
-1.300886571407318115e-01
8.776807785034179688e-02
-9.324256330728530884e-02
-1.454665660858154297e-01
-7.776663172990083694e-03
-1.796109229326248169e-01
-8.434324711561203003e-02
2.458914071321487427e-01
9.604984521865844727e-02
-6.923789530992507935e-02
3.718883916735649109e-02
3.150848746299743652e-01
7.438764721155166626e-02
2.317947447299957275e-01
5.255034775473177433e-04
-2.657490074634552002e-01
1.596294492483139038e-01
-7.413680106401443481e-02
-3.174570798873901367e-01
2.949531748890876770e-02
2.670947611331939697e-01
4.565153270959854126e-02
-1.800937503576278687e-01
-6.976965814828872681e-02
-1.435202956199645996e-01
-1.631151735782623291e-01
-8.399917185306549072e-02
-1.368234157562255859e-01
2.908360362052917480e-01
-4.417531192302703857e-02
-5.759957432746887207e-02
1.992150209844112396e-02
-1.624320149421691895e-01
-1.307941526174545288e-01
-7.731563597917556763e-02
6.898643076419830322e-02
-4.514162242412567139e-02
-1.978240609169006348e-01
6.711766868829727173e-02
1.931185126304626465e-01
-8.639480918645858765e-02
-5.799526721239089966e-02
4.122942686080932617e-02
5.810496211051940918e-02
-1.013835426419973373e-02
5.189721472561359406e-03
6.647314131259918213e-02
-1.712475344538688660e-02
-6.092212628573179245e-03
1.212094444781541824e-02
1.035154797136783600e-02
7.123870402574539185e-02
5.095540080219507217e-03
6.151415780186653137e-02
-4.782325401902198792e-02
1.687365397810935974e-02
2.966698445379734039e-02
-2.571130730211734772e-02
-1.592164160683751106e-03
-2.886972948908805847e-02
1.972413808107376099e-02
2.385361865162849426e-02
-3.106684423983097076e-02
-1.214866414666175842e-01
-5.006230995059013367e-02
-1.794420778751373291e-01
-1.033936962485313416e-01
1.778515637852251530e-03
-6.743316352367401123e-02
1.197557300329208374e-01
-5.934487655758857727e-02
1.151801273226737976e-01
2.205261029303073883e-02
-1.029710397124290466e-01
9.820913895964622498e-03
-1.160996705293655396e-01
-2.245798110961914062e-01
-1.812962740659713745e-01
7.705868780612945557e-02
-2.336525171995162964e-01
1.221755221486091614e-01
1.098016873002052307e-01
-2.301045954227447510e-01
1.449600905179977417e-01
3.887207433581352234e-02
-2.161779440939426422e-02
1.394394319504499435e-02
-8.915248513221740723e-02
1.599058508872985840e-02
-5.487076565623283386e-02
-6.783534586429595947e-02
2.553410641849040985e-02
7.084334269165992737e-03
-5.640421807765960693e-02
3.265098854899406433e-02
-2.632851712405681610e-02
-2.108777686953544617e-02
8.422732353210449219e-02
6.881701201200485229e-02
-9.995170682668685913e-02
-3.215944766998291016e-02
-5.635957419872283936e-02
-6.537999957799911499e-02
-7.574366033077239990e-02
-5.440868809819221497e-02
3.537910431623458862e-02
-8.599835447967052460e-03
-9.165517985820770264e-03
3.235354647040367126e-02
4.957103356719017029e-02
7.238008081912994385e-02
7.367239147424697876e-02
1.333178114145994186e-02
-8.024944365024566650e-02
-7.991691678762435913e-02
-9.136736392974853516e-03
1.622462086379528046e-02
1.333883125334978104e-02
4.868987202644348145e-02
-2.094878815114498138e-03
-4.337159916758537292e-02
-8.787898719310760498e-02
-4.972629249095916748e-02
1.323323044925928116e-02
5.523928254842758179e-02
-2.678088843822479248e-03
-8.397094905376434326e-02
2.527089230716228485e-02
4.059980809688568115e-02
1.251810975372791290e-02
-7.641480863094329834e-02
-7.779474556446075439e-02
6.083320453763008118e-02
-1.397178620100021362e-01
5.402838811278343201e-02
2.506277561187744141e-01
-1.044690459966659546e-01
1.378980576992034912e-01
-6.534099578857421875e-02
-1.862751320004463196e-02
-3.585324436426162720e-02
-7.062795013189315796e-02
-2.650243230164051056e-02
-1.810778528451919556e-01
2.977367118000984192e-02
-2.409931570291519165e-01
-1.301436722278594971e-01
6.126897875219583511e-03
5.317099392414093018e-02
6.269820779561996460e-02
-6.950134038925170898e-02
1.012161150574684143e-01
2.633166126906871796e-02
-1.237008497118949890e-01
1.415422856807708740e-01
-2.864557877182960510e-02
-1.406331360340118408e-01
-3.568635582923889160e-01
-1.045434325933456421e-01
8.956007659435272217e-02
-2.784554362297058105e-01
2.337161004543304443e-01
1.085118710761889815e-04
6.498330086469650269e-02
2.127142250537872314e-01
-1.992147862911224365e-01
-9.383877366781234741e-02
-1.009784713387489319e-01
-4.306767880916595459e-02
-1.341811418533325195e-01
-2.035951614379882812e-01
-1.500539295375347137e-02
-1.335291713476181030e-01
-2.337971478700637817e-01
3.027029102668166161e-03
-1.176527813076972961e-01
5.127583444118499756e-02
1.346030682325363159e-01
2.938019856810569763e-02
1.013869047164916992e-01
-7.779382634907960892e-03
1.010731086134910583e-01
-4.959927499294281006e-02
-1.333854794502258301e-01
-4.887810721993446350e-02
-7.861772924661636353e-02
-5.748974904417991638e-02
-9.201662987470626831e-02
-1.385940164327621460e-01
-9.359347820281982422e-02
-6.107323616743087769e-02
-8.427002280950546265e-02
-1.154790893197059631e-01
-2.958057262003421783e-02
-4.263488948345184326e-02
-3.666982799768447876e-02
-4.107920452952384949e-02
-4.897375591099262238e-03
5.169278755784034729e-02
9.301606565713882446e-03
1.518315076828002930e-02
7.035349309444427490e-02
-5.198084190487861633e-02
-9.597818553447723389e-02
-5.066879466176033020e-02
1.070979535579681396e-01
-8.743467181921005249e-02
-1.065421942621469498e-02
-4.825982823967933655e-02
-7.940152287483215332e-02
3.202591091394424438e-02
-1.281119883060455322e-01
8.453913778066635132e-02
-6.288064271211624146e-02
-1.302218884229660034e-01
1.948781013488769531e-01
-3.849730594083666801e-03
-7.469639927148818970e-02
8.444648236036300659e-03
-3.810515999794006348e-02
-1.988937146961688995e-02
-6.858838349580764771e-02
1.183257624506950378e-01
-9.201873093843460083e-02
1.720443814992904663e-01
-7.969691604375839233e-02
-2.771827578544616699e-01
1.136367693543434143e-01
-1.220085695385932922e-01
1.932125538587570190e-02
4.229169338941574097e-02
-3.122481144964694977e-02
1.763816922903060913e-02
1.064039170742034912e-01
5.077236331999301910e-03
-6.912186741828918457e-02
-9.180844761431217194e-03
-3.112581185996532440e-02
1.433333847671747208e-03
4.166124016046524048e-02
1.582557917572557926e-03
1.572434157133102417e-01
4.631139338016510010e-03
3.144114091992378235e-02
8.233624696731567383e-02
-3.893216326832771301e-02
-4.103475436568260193e-02
7.621153444051742554e-02
-5.670413374900817871e-02
7.070207595825195312e-02
9.706197679042816162e-02
-4.965752363204956055e-03
-4.191397875547409058e-02
3.949160501360893250e-02
9.394207596778869629e-02
-3.490197286009788513e-02
-5.805203318595886230e-02
3.379254043102264404e-02
-4.664625972509384155e-03
-8.238333463668823242e-02
1.358873397111892700e-01
9.558905847370624542e-03
-9.597426652908325195e-02
1.275262534618377686e-01
2.140440279617905617e-03
-6.511309742927551270e-02
-1.249056831002235413e-01
-2.969828806817531586e-02
-7.305282354354858398e-02
1.432761270552873611e-02
-7.692187279462814331e-02
-8.544888696633279324e-04
2.837374620139598846e-02
3.256978839635848999e-02
-1.155444532632827759e-01
1.355859935283660889e-01
6.066972017288208008e-02
-4.067471250891685486e-02
3.207447528839111328e-01
1.167788170278072357e-02
-2.450599819421768188e-01
3.058179020881652832e-01
-2.460239827632904053e-02
-1.097634900361299515e-02
-1.421366184949874878e-01
6.470070034265518188e-02
2.766532078385353088e-02
-1.469888687133789062e-01
5.812137573957443237e-02
-7.568687945604324341e-02
-1.101113576442003250e-02
5.970577523112297058e-02
-2.291029989719390869e-01
-9.022326767444610596e-02
-1.949653476476669312e-01
5.305625963956117630e-03
2.983311191201210022e-02
-1.720788776874542236e-01
5.454745143651962280e-02
2.503772079944610596e-02
-1.017415076494216919e-01
-2.437103837728500366e-01
6.931004673242568970e-02
-1.112857088446617126e-01
-3.752642273902893066e-01
2.921634018421173096e-01
-2.069851756095886230e-01
-3.025121688842773438e-01
2.447891384363174438e-01
-2.387243658304214478e-01
2.392002008855342865e-02
-9.863597899675369263e-02
4.072958976030349731e-02
5.111793521791696548e-03
-5.599732324481010437e-02
-1.158565282821655273e-01
-9.910033643245697021e-02
-1.209886074066162109e-01
-9.696206077933311462e-03
-6.844481080770492554e-02
-7.776297628879547119e-02
-6.964530050754547119e-02
-1.057614386081695557e-02
6.222610548138618469e-02
-4.027611762285232544e-02
5.915519595146179199e-02
5.923321004956960678e-04
-6.099027395248413086e-02
7.333627343177795410e-02
5.708856880664825439e-02
-5.622197315096855164e-02
6.427247822284698486e-02
6.514376401901245117e-02
4.446969553828239441e-02
8.976498991250991821e-02
-3.800844773650169373e-02
-1.024391576647758484e-01
-1.085594203323125839e-02
-4.615876078605651855e-02
-4.929599165916442871e-02
-3.432838618755340576e-02
8.045122772455215454e-02
-4.364094138145446777e-02
-2.207629196345806122e-02
-4.570892825722694397e-02
1.860642246901988983e-02
-5.746649578213691711e-02
-1.605346798896789551e-02
-3.029462508857250214e-02
-9.344904683530330658e-03
1.619979739189147949e-02
-5.442049726843833923e-02
7.221218943595886230e-02
-1.123354397714138031e-02
-6.803715229034423828e-02
-4.673521593213081360e-02
-7.751996815204620361e-02
7.738566957414150238e-03
-5.488834530115127563e-02
-9.516216069459915161e-02
3.252628445625305176e-02
-1.342274807393550873e-02
-1.163335070013999939e-01
6.724075973033905029e-02
-5.641855299472808838e-02
4.769662022590637207e-02
-1.682018116116523743e-02
-5.801240354776382446e-02
1.560596097260713577e-02
2.580576762557029724e-02
-8.203923702239990234e-02
1.770193129777908325e-02
8.316256850957870483e-02
7.301081717014312744e-02
-2.379647642374038696e-02
6.341736018657684326e-02
1.438880525529384613e-02
-4.384477436542510986e-02
-3.889601677656173706e-02
9.343591332435607910e-02
-1.381870079785585403e-02
5.908798798918724060e-02
7.768391817808151245e-02
2.523523569107055664e-02
-1.391499955207109451e-02
-6.459333747625350952e-02
5.004708468914031982e-02
2.682042121887207031e-02
6.175574287772178650e-02
-3.534645214676856995e-02
-6.257051229476928711e-02
5.803008098155260086e-03
5.276461318135261536e-02
2.532090805470943451e-02
-1.488889008760452271e-02
2.221360988914966583e-02
-1.998917385935783386e-02
-4.240678995847702026e-02
8.323987014591693878e-03
-2.880440279841423035e-02
-7.800280582159757614e-03
5.246609449386596680e-02
-3.978147357702255249e-02
4.476207867264747620e-02
-5.772921815514564514e-02
6.352616101503372192e-02
-2.694785362109541893e-03
7.318626344203948975e-02
-7.879578322172164917e-02
-2.408925071358680725e-02
-4.780157282948493958e-02
8.752942085266113281e-02
-5.421417206525802612e-02
-7.985652983188629150e-02
-3.983282949775457382e-03
9.137680381536483765e-02
6.768429279327392578e-02
2.691731788218021393e-02
2.102481573820114136e-02
-6.356631219387054443e-02
1.351574212312698364e-01
3.193283826112747192e-02
-4.426007159054279327e-03
8.730794489383697510e-02
4.896607995033264160e-02
-2.494018711149692535e-02
-8.588627725839614868e-02
6.834764033555984497e-02
-8.502978831529617310e-02
2.102413214743137360e-02
8.319968357682228088e-03
4.016445949673652649e-02
7.790126372128725052e-03
-6.855185329914093018e-02
4.995030909776687622e-02
-2.930148271843791008e-03
-1.018231958150863647e-01
2.022947557270526886e-02
-5.299437418580055237e-02
-9.362266212701797485e-02
-3.476849198341369629e-02
4.398006945848464966e-02
-1.830635406076908112e-02
-5.276778712868690491e-02
7.835172861814498901e-02
-9.829006157815456390e-03
-4.748257994651794434e-02
8.234139531850814819e-02
-7.963815331459045410e-02
-1.695691421627998352e-02
6.255420297384262085e-02
-1.190645471215248108e-01
-1.787263751029968262e-01
5.628550797700881958e-02
-6.389759015291929245e-03
-6.787122786045074463e-02
-9.435841441154479980e-02
-7.868894934654235840e-02
1.193456128239631653e-01
1.922322809696197510e-02
-8.647361397743225098e-02
1.249163299798965454e-01
2.793186111375689507e-03
1.616189070045948029e-02
5.374453961849212646e-02
-2.997668460011482239e-02
-3.570127487182617188e-02
6.592730432748794556e-02
-2.507612854242324829e-02
4.045692272484302521e-03
-5.351359769701957703e-02
-7.134278863668441772e-02
-4.702650755643844604e-02
1.683133654296398163e-03
-4.270386323332786560e-02
-4.271460324525833130e-02
5.558984354138374329e-02
-2.761830808594822884e-03
1.372364256531000137e-02
4.970140382647514343e-02
2.651080675423145294e-02
-5.191721767187118530e-02
-1.876355614513158798e-03
-6.090614944696426392e-02
-4.524686187505722046e-02
6.574697047472000122e-02
-3.947179764509201050e-02
-3.539628162980079651e-02
6.880880147218704224e-02
6.485904008150100708e-02
-4.787317477166652679e-03
-1.365995779633522034e-02
2.407643198966979980e-02
-6.746347248554229736e-02
-4.834835976362228394e-02
-9.021359682083129883e-02
1.052609980106353760e-01
4.746005684137344360e-02
-1.266697980463504791e-02
-4.738907329738140106e-03
-7.943835854530334473e-02
1.348335761576890945e-02
-6.418214738368988037e-02
-4.126468673348426819e-02
8.632546290755271912e-03
-5.113217979669570923e-02
-2.181107550859451294e-02
3.231444954872131348e-02
-5.981631949543952942e-02
-7.865231484174728394e-02
-4.373927041888237000e-02
1.982356049120426178e-02
-6.024662777781486511e-02
-1.939527504146099091e-02
-7.272854447364807129e-02
1.955751702189445496e-02
7.843066006898880005e-02
2.170487679541110992e-02
-5.583415925502777100e-02
1.363894436508417130e-02
-9.062379598617553711e-03
3.018942102789878845e-02
6.550247222185134888e-02
1.067450195550918579e-01
4.156995192170143127e-02
7.114964071661233902e-03
5.776036158204078674e-02
9.265195578336715698e-02
-4.552830383181571960e-02
8.265008777379989624e-02
1.700785383582115173e-02
1.157916337251663208e-02
-5.515887960791587830e-02
-8.271404355764389038e-02
2.496273070573806763e-02
5.828436464071273804e-02
-6.631240248680114746e-02
-2.242115512490272522e-02
-5.168508365750312805e-02
5.972895771265029907e-03
-4.898227006196975708e-02
-4.924371466040611267e-02
-4.232059419155120850e-02
-3.839389607310295105e-02
-2.999152243137359619e-02
-5.534908175468444824e-02
7.728692889213562012e-02
9.262393228709697723e-03
-6.092884391546249390e-02
-5.189070850610733032e-02
-4.641279578208923340e-02
6.438858807086944580e-03
-8.682786673307418823e-02
5.032542720437049866e-02
1.573821902275085449e-02
-3.665819391608238220e-02
-1.200832333415746689e-02
-7.909658551216125488e-02
-2.897127065807580948e-03
8.762717992067337036e-02
3.526719287037849426e-02
-4.539825022220611572e-02
-2.308758720755577087e-02
-6.463579088449478149e-02
6.705714017152786255e-02
-5.668718740344047546e-02
-5.382915958762168884e-02
1.038067117333412170e-01
9.331417828798294067e-02
-4.993384703993797302e-02
-3.431431949138641357e-02
-1.049450249411165714e-03
4.309143871068954468e-02
-8.209589123725891113e-02
5.611157044768333435e-02
6.207253411412239075e-02
3.125314787030220032e-02
3.684401884675025940e-02
3.067105822265148163e-02
-5.678226426243782043e-02
-1.167055219411849976e-01
9.915421716868877411e-03
-8.696229755878448486e-02
-1.046363636851310730e-01
-9.897541254758834839e-02
2.529287897050380707e-02
-4.413412883877754211e-02
2.454514428973197937e-02
-5.711201950907707214e-02
2.213003858923912048e-02
-1.223150342702865601e-01
2.125427275896072388e-01
-1.094876229763031006e-01
-1.621246188879013062e-01
1.912556886672973633e-01
-1.856852322816848755e-02
-1.455493271350860596e-01
2.131565706804394722e-03
-1.445192471146583557e-02
-5.773076787590980530e-02
4.845282062888145447e-03
5.121969431638717651e-02
8.084672689437866211e-02
1.557818427681922913e-02
-5.057552084326744080e-02
1.196117922663688660e-01
-9.468317031860351562e-03
-2.609188482165336609e-02
2.728362567722797394e-03
-3.973817452788352966e-02
-4.915298148989677429e-02
8.354721218347549438e-02
2.010309882462024689e-02
-7.806815207004547119e-02
2.079226635396480560e-02
1.372731290757656097e-02
-3.156523779034614563e-02
1.179673802107572556e-02
-3.899345174431800842e-02
-6.348007917404174805e-02
-1.932689361274242401e-02
7.062653452157974243e-02
1.318352483212947845e-02
-2.110559865832328796e-02
1.182048246264457703e-01
-2.894295565783977509e-02
-2.833844162523746490e-02
3.774773702025413513e-02
-7.713604718446731567e-02
-4.067504033446311951e-02
-3.859439119696617126e-02
-3.144427016377449036e-02
2.742446959018707275e-02
-8.242031931877136230e-02
9.808707982301712036e-02
1.053350344300270081e-01
3.071138635277748108e-03
5.150059238076210022e-02
3.963165357708930969e-02
-5.716050043702125549e-03
-2.591627649962902069e-02
-7.786510884761810303e-02
4.728863760828971863e-02
-7.515404373407363892e-02
-1.901192665100097656e-01
-1.108969971537590027e-01
1.169473454356193542e-01
3.039151616394519806e-02
-7.665296643972396851e-02
6.205083802342414856e-03
4.529726132750511169e-02
-1.036634296178817749e-01
1.610635593533515930e-02
-9.105144441127777100e-02
-5.162264034152030945e-02
-4.867274779826402664e-03
-7.184763904660940170e-03
-1.742452234029769897e-01
2.031229734420776367e-01
7.435092329978942871e-02
-1.210898756980895996e-01
1.420955359935760498e-01
-2.835107501596212387e-03
-6.699531339108943939e-03
1.355147808790206909e-01
1.057448461651802063e-01
-5.603361502289772034e-02
2.116437535732984543e-03
1.141099110245704651e-01
1.185389161109924316e-01
3.493325039744377136e-02
-1.738325133919715881e-02
-1.713580079376697540e-02
-2.634174376726150513e-02
-8.896155655384063721e-02
4.080696776509284973e-02
-9.439776092767715454e-02
-7.747968193143606186e-03
4.520972445607185364e-02
-4.582606628537178040e-02
-1.580625399947166443e-02
-5.008312873542308807e-03
6.420528888702392578e-02
-9.055632166564464569e-03
7.173389196395874023e-02
-6.828272342681884766e-02
-3.644425794482231140e-02
5.946562439203262329e-02
8.554564416408538818e-02
-1.048171073198318481e-01
3.075530380010604858e-02
1.282541304826736450e-01
1.699557602405548096e-01
-9.603725373744964600e-02
-1.081059314310550690e-02
1.907283961772918701e-01
8.119413256645202637e-02
1.224124208092689514e-01
3.515850752592086792e-02
-3.967045620083808899e-02
6.563288718461990356e-02
5.372846126556396484e-02
-5.857617780566215515e-02
4.590038210153579712e-03
-5.341803282499313354e-02
1.013405174016952515e-01
-9.431964904069900513e-02
-1.840611249208450317e-01
-7.928183674812316895e-02
-3.939945623278617859e-02
3.798351064324378967e-02
-2.449522465467453003e-01
-8.810999244451522827e-02
1.229483187198638916e-01
-4.149303212761878967e-02
-2.829107083380222321e-02
-7.936453330330550671e-04
1.113348156213760376e-01
3.712773695588111877e-02
2.244518883526325226e-02
-2.214606618508696556e-03
1.594333201646804810e-01
3.626931086182594299e-02
-7.167343795299530029e-02
2.071658521890640259e-02
-5.673162639141082764e-02
-1.047793254256248474e-01
1.729611903429031372e-01
8.617597632110118866e-03
-3.040366806089878082e-02
-5.824169516563415527e-02
1.599766463041305542e-01
4.414545372128486633e-02
-1.881082355976104736e-01
-3.884065747261047363e-01
-3.399043083190917969e-01
6.061564013361930847e-02
-8.534990251064300537e-02
-2.682493031024932861e-01
5.291393771767616272e-02
3.598638251423835754e-02
-2.636431753635406494e-01
-2.698691748082637787e-02
-6.122468039393424988e-02
-1.560481823980808258e-02
-1.304793916642665863e-02
-3.889095736667513847e-03
-1.704533584415912628e-02
2.940717339515686035e-01
3.152990713715553284e-02
2.466810680925846100e-02
-9.242287278175354004e-02
-1.654710471630096436e-01
-7.905247807502746582e-02
-2.821107394993305206e-02
2.343713119626045227e-02
-2.234898693859577179e-02
-4.558848962187767029e-02
2.036591758951544762e-03
-5.123607069253921509e-02
-9.768431633710861206e-02
-8.630567044019699097e-02
-1.510758697986602783e-02
2.895450592041015625e-02
-7.566249370574951172e-02
-2.419129200279712677e-02
7.575960457324981689e-02
4.367780312895774841e-02
4.589908570051193237e-02
-2.000902593135833740e-02
-7.094010710716247559e-02
-4.288811236619949341e-02
-6.157168373465538025e-02
4.832064732909202576e-02
2.903276309370994568e-02
-4.207274317741394043e-02
-4.994666576385498047e-02
2.400966826826334000e-03
3.845746442675590515e-02
6.812523305416107178e-02
-3.118064440786838531e-02
5.753169208765029907e-02
-1.505437642335891724e-01
-3.545440435409545898e-01
-4.509272519499063492e-03
-1.526676565408706665e-01
-1.865690350532531738e-01
-1.708390563726425171e-01
-2.234869301319122314e-01
1.305320560932159424e-01
-2.173776030540466309e-01
-1.331421136856079102e-01
1.940388083457946777e-01
-2.234951704740524292e-01
-1.037313714623451233e-01
1.768225431442260742e-01
-2.685423791408538818e-01
-5.537288784980773926e-01
1.159691959619522095e-01
-3.857951164245605469e-01
-3.471681177616119385e-01
1.627006232738494873e-01
-3.587555885314941406e-01
-3.396167159080505371e-01
-4.331224039196968079e-02
-2.047284133732318878e-02
-6.287578493356704712e-02
-1.240807622671127319e-01
-4.272825270891189575e-02
-1.719954907894134521e-01
-2.296954393386840820e-01
-2.865948341786861420e-02
-7.289279997348785400e-02
1.535999774932861328e-02
-2.851150371134281158e-02
1.244874298572540283e-01
8.817187696695327759e-02
2.264855615794658661e-02
1.013557463884353638e-01
2.057042159140110016e-02
1.245513856410980225e-01
-1.101108044385910034e-01
-1.049349606037139893e-01
1.233580172993242741e-03
-1.252818480134010315e-02
1.212901808321475983e-02
-4.344924539327621460e-02
-2.859830670058727264e-02
1.034568548202514648e-01
-2.852570451796054840e-02
6.829263176769018173e-03
-2.364193275570869446e-02
2.543316408991813660e-02
-4.013869911432266235e-02
-6.321326643228530884e-02
-1.074078381061553955e-01
-1.651367545127868652e-01
6.448764353990554810e-02
7.093656808137893677e-03
-3.998433705419301987e-03
8.480909466743469238e-02
-5.756487324833869934e-02
-6.464570015668869019e-02
-1.873618923127651215e-02
-1.169680356979370117e-01
-1.331168506294488907e-02
-1.208438351750373840e-01
1.197556778788566589e-01
1.224440708756446838e-01
-1.656993925571441650e-01
-1.179127767682075500e-01
-2.896015346050262451e-01
3.736993670463562012e-02
-7.847870141267776489e-02
-2.521556317806243896e-01
3.748485445976257324e-01
-2.832359075546264648e-01
-3.219244480133056641e-01
3.451814353466033936e-01
-1.863594949245452881e-01
-1.976078003644943237e-01
-2.547988593578338623e-01
-1.588419638574123383e-02
-3.301201164722442627e-01
-2.354357838630676270e-01
-4.936029016971588135e-02
-5.327858328819274902e-01
-3.958380818367004395e-01
-1.656943112611770630e-01
8.892404730431735516e-04
4.390472173690795898e-02
-1.583845168352127075e-01
-3.625580295920372009e-02
-2.421362400054931641e-01
9.959547966718673706e-02
1.244570612907409668e-01
1.252248734235763550e-01
-4.560591876506805420e-01
-5.174057483673095703e-01
2.848275303840637207e-01
-5.125886201858520508e-01
1.119124889373779297e-02
4.450765550136566162e-01
-3.726481199264526367e-01
1.322735100984573364e-01
3.321778774261474609e-01
-2.388994842767715454e-01
-3.486529290676116943e-01
-2.317142635583877563e-01
-2.024983614683151245e-01
-3.670229911804199219e-01
-3.391459584236145020e-01
-2.802085280418395996e-01
-3.686130940914154053e-01
-4.958852529525756836e-01
-2.534517049789428711e-01
1.129226386547088623e-02
2.345550358295440674e-01
-1.165849193930625916e-01
4.090147837996482849e-02
5.993368569761514664e-03
6.659063696861267090e-02
3.063655197620391846e-01
-2.068340182304382324e-01
-7.858108729124069214e-02
1.091468892991542816e-02
5.215897690504789352e-03
1.924720592796802521e-02
4.296656325459480286e-02
-1.957037597894668579e-01
4.811617732048034668e-02
1.803473802283406258e-03
-7.887817174196243286e-02
2.378960512578487396e-02
-2.326896227896213531e-02
2.665870077908039093e-02
3.809449449181556702e-02
7.068851590156555176e-02
4.111464321613311768e-02
1.567053049802780151e-02
-8.166027069091796875e-02
-8.054204285144805908e-02
6.693989504128694534e-03
-4.305899143218994141e-02
-2.704017981886863708e-02
-2.646650746464729309e-02
-1.258456259965896606e-01
-2.172642797231674194e-01
-1.125750765204429626e-01
-1.207323074340820312e-01
-2.377161830663681030e-01
-2.377349883317947388e-01
-1.009745523333549500e-01
1.012555211782455444e-01
-1.532320380210876465e-01
-2.030109167098999023e-01
-4.433498531579971313e-02
-8.817671239376068115e-02
-1.742689758539199829e-01
9.370300918817520142e-02
-2.364214360713958740e-01
-1.693082898855209351e-01
1.066980585455894470e-01
-1.475613862276077271e-01
-8.352313190698623657e-02
-9.518498927354812622e-02
3.976801410317420959e-02
2.427437528967857361e-02
6.851479411125183105e-02
-7.303777965717017651e-05
4.529349505901336670e-02
8.762438781559467316e-03
5.693991854786872864e-02
-4.488983377814292908e-02
-1.120628789067268372e-01
-4.131256788969039917e-02
3.366625681519508362e-02
7.370303571224212646e-02
3.014479018747806549e-02
7.816185802221298218e-02
8.193720132112503052e-02
-1.288708951324224472e-02
-1.421523243188858032e-01
-6.180910393595695496e-02
-3.833919018507003784e-02
-1.202251240611076355e-01
-1.017363667488098145e-01
-7.630128413438796997e-02
-7.174192368984222412e-02
1.662269234657287598e-02
-6.531091034412384033e-02
5.340710282325744629e-02
-8.203878253698348999e-02
-9.105299413204193115e-02
-3.806028142571449280e-02
1.744133234024047852e-02
-4.083292186260223389e-02
-8.417696505784988403e-02
9.221595525741577148e-02
5.019655451178550720e-02
-1.832183264195919037e-02
3.282327950000762939e-02
-8.464634418487548828e-02
-1.829696148633956909e-01
-2.901875041425228119e-02
-2.495929785072803497e-02
2.285260520875453949e-02
1.158974543213844299e-01
7.446626573801040649e-02
1.846675388514995575e-02
1.153607293963432312e-02
-7.121019065380096436e-02
-3.435538709163665771e-02
-5.180893093347549438e-02
-1.791100651025772095e-01
-1.833242923021316528e-01
-1.489053014665842056e-02
-5.960163846611976624e-02
-2.346403151750564575e-01
-8.978864550590515137e-02
-1.862925589084625244e-01
-3.107908368110656738e-01
-1.166644170880317688e-01
5.663952603936195374e-02
-2.171383947134017944e-01
-1.863960176706314087e-01
-8.201017975807189941e-02
-2.446488589048385620e-01
-3.299414217472076416e-01
-1.582635566592216492e-02
-8.128742873668670654e-02
-3.331377208232879639e-01
-1.837432682514190674e-01
1.385345309972763062e-01
1.483892351388931274e-01
-4.699589218944311142e-03
1.170729938894510269e-02
1.973385512828826904e-01
-5.594788119196891785e-02
2.087303064763545990e-02
2.998868525028228760e-01
-3.301965892314910889e-01
1.140271574258804321e-01
4.350934028625488281e-01
-1.405014991760253906e-01
2.995873391628265381e-01
3.013480603694915771e-01
-2.229593992233276367e-01
1.227226555347442627e-01
3.534834384918212891e-01
-1.173083931207656860e-01
-1.783672273159027100e-01
-2.667796313762664795e-01
-1.596950888633728027e-01
-2.113014608621597290e-01
-3.424327671527862549e-01
1.101177036762237549e-01
-1.053211372345685959e-02
-5.480986833572387695e-02
-6.352543085813522339e-02
1.271675676107406616e-01
2.422869801521301270e-01
6.543903797864913940e-02
7.952392846345901489e-02
5.813247337937355042e-02
6.199688091874122620e-02
4.002904146909713745e-02
4.124462604522705078e-02
2.034126222133636475e-02
6.539667397737503052e-02
-6.659528613090515137e-02
4.538808425422757864e-04
1.103523299098014832e-01
-1.267282944172620773e-02
5.711131542921066284e-02
1.715601533651351929e-01
1.882565766572952271e-01
1.910880580544471741e-02
1.707142777740955353e-02
-2.660496346652507782e-02
-6.665794644504785538e-03
1.303321495652198792e-02
-1.789021119475364685e-02
-2.417612448334693909e-02
4.577980563044548035e-02
-4.119469225406646729e-02
-2.216113964095711708e-03
-1.007385477423667908e-01
-1.209364309906959534e-01
1.248396486043930054e-01
5.743625015020370483e-02
1.568731218576431274e-01
4.604490473866462708e-02
-6.306375563144683838e-02
1.637626066803932190e-02
-6.519721448421478271e-02
-1.375665538944303989e-03
-6.742963194847106934e-02
-1.899441927671432495e-01
-6.580600142478942871e-02
-1.233530044555664062e-01
1.106056869029998779e-01
1.569691300392150879e-01
5.175660923123359680e-02
-1.683221310377120972e-01
1.480290479958057404e-02
2.434191256761550903e-01
-2.372076660394668579e-01
-2.714466452598571777e-01
-1.970134526491165161e-01
-8.681168407201766968e-02
9.879290312528610229e-02
1.635720282793045044e-01
6.619743537157773972e-03
2.027015201747417450e-02
-2.572300285100936890e-02
5.503122881054878235e-02
9.739419072866439819e-02
3.940957132726907730e-03
1.089341044425964355e-01
3.966670949012041092e-03
-1.322909630835056305e-02
-2.367898449301719666e-02
-6.767711043357849121e-02
-1.775078475475311279e-02
-8.212146349251270294e-04
-2.905096299946308136e-02
-3.002510219812393188e-02
9.806304238736629486e-03
3.091890364885330200e-02
8.065375732257962227e-04
-4.984961822628974915e-02
-5.701976269483566284e-02
-3.921778500080108643e-02
-4.047172609716653824e-03
4.348905757069587708e-03
-9.132827818393707275e-02
-3.475905209779739380e-02
-4.137902706861495972e-02
2.375382184982299805e-02
4.826463758945465088e-03
-2.316908538341522217e-02
-2.932420745491981506e-02
-1.516814529895782471e-01
-4.115901421755552292e-03
-7.173065841197967529e-02
1.539040636271238327e-02
4.624485224485397339e-02
6.282582879066467285e-02
-4.332264419645071030e-03
5.200745165348052979e-02
-1.143911108374595642e-01
-3.568085283041000366e-02
4.240814968943595886e-02
1.317364126443862915e-01
7.733006775379180908e-02
-4.363628849387168884e-02
5.235056579113006592e-02
-1.777180880308151245e-01
-9.557925164699554443e-02
1.254629492759704590e-01
-3.847627937793731689e-01
-3.471090197563171387e-01
-4.507522284984588623e-01
-5.868053063750267029e-02
-1.808135956525802612e-01
-3.341709971427917480e-01
-7.344052940607070923e-02
-4.887289926409721375e-02
1.358033418655395508e-01
5.215441063046455383e-02
3.924572095274925232e-02
-9.799774736166000366e-02
-1.881110966205596924e-01
-6.148860603570938110e-02
-1.567090004682540894e-01
-1.028124466538429260e-01
-1.635848879814147949e-01
-3.871786594390869141e-01
-6.932246685028076172e-02
1.005208119750022888e-01
1.186712533235549927e-01
2.332897484302520752e-02
1.365540176630020142e-01
2.804464697837829590e-01
-2.066606283187866211e-01
7.903996109962463379e-02
1.712129116058349609e-01
-4.733581840991973877e-01
-4.509652554988861084e-01
-4.387280642986297607e-01
1.794719099998474121e-01
2.065390497446060181e-01
2.508027255535125732e-01
1.395536120980978012e-02
1.013311892747879028e-01
1.258915215730667114e-01
-7.215531170368194580e-02
-1.090936288237571716e-01
-1.557045131921768188e-01
-1.425301581621170044e-01
4.050150513648986816e-02
-8.773922920227050781e-02
-9.027265012264251709e-02
-1.094197556376457214e-01
-1.861639767885208130e-01
-1.976965367794036865e-01
-9.076311439275741577e-02
-1.432906836271286011e-02
2.127101421356201172e-01
1.612270921468734741e-01
2.401686608791351318e-01
3.721651062369346619e-02
-6.878315657377243042e-02
1.146695762872695923e-01
-7.399758696556091309e-02
-3.490658849477767944e-02
-1.285085380077362061e-01
1.851412467658519745e-02
5.836238618940114975e-03
6.544828414916992188e-02
-6.503905355930328369e-02
6.774420291185379028e-02
7.785788923501968384e-02
-6.281974166631698608e-02
-2.662740275263786316e-02
7.572882622480392456e-02
-1.583249680697917938e-02
-1.858573406934738159e-02
5.449968576431274414e-02
1.523237228393554688e-01
9.005681425333023071e-02
1.418231129646301270e-01
-3.404687857255339622e-03
2.792123518884181976e-02
2.714166045188903809e-02
-5.678212270140647888e-03
4.705602303147315979e-02
-6.350111216306686401e-02
-2.106931246817111969e-02
-1.407631784677505493e-01
-1.188201233744621277e-01
1.849064826965332031e-01
-1.216014288365840912e-02
2.378026209771633148e-02
-9.777482599020004272e-02
-8.417785912752151489e-02
-3.385765105485916138e-02
-1.951875686645507812e-01
-2.203782647848129272e-01
-2.725208997726440430e-01
8.680550754070281982e-02
1.356727033853530884e-01
1.260142177343368530e-01
-1.015327572822570801e-01
-1.328016221523284912e-01
1.404023729264736176e-02
-2.135785482823848724e-02
1.133211329579353333e-02
-3.839237615466117859e-02
-6.436278671026229858e-02
9.272276610136032104e-02
2.779538743197917938e-02
-7.052183151245117188e-02
8.257914334535598755e-02
-6.704556196928024292e-02
-3.438265994191169739e-02
3.090866608545184135e-03
7.566068321466445923e-02
9.935112757375463843e-05
5.921967327594757080e-03
7.230092585086822510e-02
-4.331680014729499817e-02
6.279047578573226929e-02
-2.030040323734283447e-02
2.822499163448810577e-02
3.232558444142341614e-02
-5.337893590331077576e-02
-6.989410519599914551e-02
-1.108161453157663345e-02
8.522134274244308472e-02
-2.463734336197376251e-02
-7.461638189852237701e-03
-6.409427523612976074e-02
-1.154064107686281204e-02
2.132430858910083771e-02
7.518679648637771606e-02
-2.827581018209457397e-03
4.177383333444595337e-02
5.927139148116111755e-02
2.269674837589263916e-02
-2.186883240938186646e-02
-1.686157472431659698e-02
8.108710497617721558e-02
2.695014514029026031e-02
-2.978947199881076813e-02
-7.442256808280944824e-02
-6.862352788448333740e-02
2.258413657546043396e-02
-6.497780978679656982e-02
-7.087014615535736084e-02
2.998772449791431427e-02
-8.526480197906494141e-02
-2.436651289463043213e-01
-1.781245619058609009e-01
8.289975672960281372e-02
1.044488996267318726e-01
5.095226690173149109e-02
-3.207188099622726440e-02
-1.097701042890548706e-01
3.425031900405883789e-03
-4.000220447778701782e-02
2.120662853121757507e-02
-1.085460260510444641e-01
5.747398734092712402e-02
-1.163179799914360046e-02
-3.091800399124622345e-02
6.591791659593582153e-02
9.618926048278808594e-02
-3.253594972193241119e-03
-7.171446084976196289e-02
1.104282289743423462e-01
9.375707060098648071e-02
-2.111796662211418152e-02
4.121338948607444763e-02
1.322141736745834351e-01
-8.633475005626678467e-02
-1.490406095981597900e-01
-6.364089995622634888e-02
-1.888485550880432129e-01
-2.800211906433105469e-01
-3.136458992958068848e-01
1.181882768869400024e-01
-3.097511641681194305e-02
1.216054782271385193e-01
-1.396257728338241577e-01
-3.593935668468475342e-01
-1.303879730403423309e-02
-1.437147110700607300e-01
-4.578344151377677917e-02
-9.386112540960311890e-02
1.245916187763214111e-01
1.177797317504882812e-01
-2.401868440210819244e-02
-6.672639865428209305e-03
1.461298856884241104e-02
-6.469761580228805542e-02
3.932637721300125122e-02
-5.526681430637836456e-03
3.034462593495845795e-02
4.111720621585845947e-02
2.795331925153732300e-02
-1.056242361664772034e-02
-1.594475805759429932e-01
-6.019677594304084778e-02
-1.807071119546890259e-01
-4.195237159729003906e-02
-8.760455250740051270e-02
-3.174229711294174194e-02
3.491025790572166443e-02
5.909461900591850281e-02
6.598500907421112061e-02
-1.109345555305480957e-01
5.333659052848815918e-02
-3.815321996808052063e-02
-2.373553626239299774e-02
2.187991887331008911e-02
6.810206919908523560e-02
8.338407427072525024e-02
8.279791474342346191e-02
4.663369432091712952e-02
3.526306152343750000e-02
-5.738632380962371826e-02
5.944854766130447388e-02
-4.240456223487854004e-02
2.318510413169860840e-02
-9.359079599380493164e-02
-1.706590205430984497e-01
-1.000396907329559326e-01
3.578884527087211609e-02
-7.736942917108535767e-02
-8.204792439937591553e-02
-9.026031196117401123e-02
1.189934555441141129e-02
-5.876879673451185226e-03
-1.311178877949714661e-02
5.633350834250450134e-02
1.125830411911010742e-01
-5.807715654373168945e-02
-1.302500814199447632e-01
5.300456658005714417e-03
3.810153156518936157e-02
1.800812594592571259e-02
-2.620446123182773590e-02
-8.837410807609558105e-02
8.563338220119476318e-02
-2.243404276669025421e-02
-1.285946518182754517e-01
-2.051750719547271729e-01
1.530609186738729477e-02
-1.013352498412132263e-01
-5.663026124238967896e-02
9.383150935173034668e-02
1.673706062138080597e-02
-4.512093216180801392e-02
1.277817040681838989e-01
8.252608031034469604e-02
-6.959179043769836426e-02
3.693968430161476135e-02
-5.143700912594795227e-02
-2.418322116136550903e-02
-3.831782191991806030e-02
-4.240342229604721069e-02
-2.647706773132085800e-03
-1.807517558336257935e-01
8.422410488128662109e-02
7.197997719049453735e-02
-1.150595322251319885e-01
-1.238967850804328918e-01
-9.494456648826599121e-02
-1.032438948750495911e-01
-5.629133433103561401e-02
1.596248894929885864e-02
-1.099200397729873657e-01
4.798293858766555786e-02
6.170994788408279419e-02
-8.772010356187820435e-02
-1.958711072802543640e-02
1.851992458105087280e-01
2.042720317840576172e-01
-1.461465191096067429e-02
-1.138694658875465393e-01
2.526260018348693848e-01
2.963563241064548492e-02
-2.218515612185001373e-02
4.734024032950401306e-02
9.671625494956970215e-02
-4.770366847515106201e-02
9.798178076744079590e-02
1.325125992298126221e-02
-7.648003846406936646e-02
1.051667258143424988e-01
5.297239124774932861e-02
-8.717335015535354614e-02
-3.684414178133010864e-02
2.746724337339401245e-02
1.801020056009292603e-01
1.094058305025100708e-01
-5.181236192584037781e-02
-2.465167194604873657e-01
1.440357863903045654e-01
1.305178105831146240e-01
-2.117467671632766724e-01
-1.360016316175460815e-01
1.342781633138656616e-01
-1.570806354284286499e-01
3.967874869704246521e-02
6.674728821963071823e-03
1.089521646499633789e-01
-1.486066728830337524e-01
-3.376064822077751160e-03
3.347813710570335388e-02
-1.063255071640014648e-01
-1.017650663852691650e-01
2.215940207242965698e-01
6.218774616718292236e-02
-2.078066319227218628e-01
4.811085015535354614e-02
3.878637254238128662e-01
1.202936917543411255e-01
-2.591625154018402100e-01
2.778595872223377228e-02
2.054483890533447266e-01
1.136863082647323608e-01
-1.622643172740936279e-01
-2.018473446369171143e-01
-8.057732135057449341e-03
2.267977595329284668e-01
-2.768186330795288086e-01
-4.115747213363647461e-01
2.614565789699554443e-01
1.673403531312942505e-01
-1.772197932004928589e-01
-2.922422811388969421e-02
1.006541028618812561e-01
1.410709917545318604e-01
-1.657955646514892578e-01
-1.193240359425544739e-01
9.863034635782241821e-02
-9.677603840827941895e-03
-1.159901097416877747e-01
1.727322582155466080e-03
-7.859020680189132690e-02
-1.060212776064872742e-01
-4.963636025786399841e-02
-3.552452847361564636e-02
5.425528436899185181e-02
-2.251456081867218018e-01
-1.556215807795524597e-02
4.935313388705253601e-02
5.482584610581398010e-02
4.992213100194931030e-02
-5.125901848077774048e-02
2.524456381797790527e-01
4.580494388937950134e-02
-1.124015972018241882e-01
1.379294246435165405e-01
1.453973948955535889e-01
-7.627956569194793701e-02
3.136114776134490967e-02
1.429797895252704620e-02
-3.479785099625587463e-02
2.330318093299865723e-03
-7.134691346436738968e-03
1.313043199479579926e-02
3.001158498227596283e-02
-5.942980945110321045e-02
-3.638783097267150879e-02
6.324251741170883179e-02
2.824845165014266968e-02
2.478242293000221252e-02
-3.666395321488380432e-02
-3.920961916446685791e-02
-5.658257752656936646e-02
-7.602214068174362183e-02
-7.341248542070388794e-02
-1.920519513078033924e-03
4.642261192202568054e-02
1.270405482500791550e-02
3.015360049903392792e-02
-8.794175833463668823e-02
4.100203514099121094e-02
9.038598835468292236e-02
2.375088632106781006e-02
-6.916792690753936768e-02
3.176996111869812012e-02
-4.499622061848640442e-02
-9.187396499328315258e-04
-1.022114679217338562e-01
-1.038178429007530212e-01
2.394110895693302155e-02
-1.215363759547472000e-02
-2.069978974759578705e-03
-2.754813991487026215e-02
4.252321645617485046e-02
5.158566311001777649e-02
-1.658065244555473328e-02
9.966913610696792603e-03
7.499843835830688477e-02
3.195668384432792664e-02
1.713904365897178650e-02
7.288757711648941040e-02
4.383973777294158936e-02
-4.555668309330940247e-02
7.024074345827102661e-02
2.618930302560329437e-02
4.523322731256484985e-02
-3.688928857445716858e-02
-1.186196319758892059e-02
-2.919132262468338013e-02
-1.695238053798675537e-02
7.709735073149204254e-03
3.779035434126853943e-02
-1.412684563547372818e-02
-2.553010359406471252e-02
1.852498576045036316e-02
1.986253447830677032e-02
-6.404396891593933105e-02
-8.009108155965805054e-02
-5.854298919439315796e-02
7.406987994909286499e-02
-2.317523583769798279e-02
-8.192291483283042908e-03
-9.870243072509765625e-02
-4.017015919089317322e-02
-3.028914891183376312e-02
-8.589050918817520142e-02
-6.696216017007827759e-02
-1.148142479360103607e-02
2.325627766549587250e-02
3.091201186180114746e-02
-1.173643022775650024e-02
1.988377235829830170e-02
8.318410813808441162e-02
-8.505677804350852966e-03
-9.764458984136581421e-02
1.186042372137308121e-02
-2.367189712822437286e-02
-1.891967258416116238e-03
3.938858583569526672e-02
-7.038285583257675171e-02
2.759215421974658966e-02
-8.742426335811614990e-02
-6.897265464067459106e-02
-4.395772516727447510e-02
-9.424756467342376709e-02
-4.658908024430274963e-02
-1.068312674760818481e-01
-3.651779890060424805e-02
8.693657070398330688e-02
1.976358890533447266e-02
-8.495797216892242432e-02
3.084140643477439880e-02
-1.495212689042091370e-02
-6.455855071544647217e-02
-1.648399629630148411e-03
2.773234620690345764e-02
1.099600195884704590e-01
-6.992813944816589355e-02
5.399474874138832092e-02
6.282333284616470337e-02
1.367788994684815407e-03
-9.263171255588531494e-02
-5.224705860018730164e-02
5.143520236015319824e-02
-7.080031186342239380e-02
2.062300778925418854e-02
-1.009711399674415588e-01
-3.210107982158660889e-02
-1.001486033201217651e-01
5.123645998537540436e-03
3.395160660147666931e-02
1.437773257493972778e-01
-9.658767282962799072e-02
-1.462980806827545166e-01
-1.097061578184366226e-02
-5.497810989618301392e-02
-8.817946910858154297e-02
-3.534207120537757874e-02
-8.379133418202400208e-03
-1.391219533979892731e-02
1.382497977465391159e-02
-9.014178067445755005e-02
-9.585877880454063416e-03
1.063483282923698425e-01
-5.390561744570732117e-02
8.810570091009140015e-02
6.948671489953994751e-02
6.860193610191345215e-02
4.787600412964820862e-02
7.649575173854827881e-02
-2.558067254722118378e-02
-6.252472102642059326e-02
-8.616553246974945068e-02
-8.591031283140182495e-02
9.801155887544155121e-03
-7.750361226499080658e-03
-4.577668383717536926e-02
-3.197845071554183960e-02
3.286054357886314392e-02
-2.275154553353786469e-02
4.714816063642501831e-02
7.314410526305437088e-03
-2.238710038363933563e-02
-8.235406130552291870e-02
-4.352645017206668854e-03
3.534666448831558228e-02
-6.832423806190490723e-02
-3.486302122473716736e-02
6.692533195018768311e-02
-3.350832313299179077e-02
-4.651046916842460632e-02
-7.081084698438644409e-02
-2.185428291559219360e-01
-1.009158510714769363e-02
-1.481395810842514038e-01
-2.947693467140197754e-01
3.993494436144828796e-02
2.551238238811492920e-02
-1.567561775445938110e-01
-1.720591485500335693e-01
-1.304544061422348022e-01
3.786914050579071045e-02
3.767431527376174927e-02
-1.969373971223831177e-01
-9.077243506908416748e-02
-3.559764102101325989e-02
-1.315566599369049072e-01
-1.422588825225830078e-01
6.733218580484390259e-02
1.981070823967456818e-02
7.848958671092987061e-02
-1.339843962341547012e-03
