4.259176179766654968e-02
2.550551854074001312e-02
-1.769618690013885498e-02
-9.217160753905773163e-03
-2.646242268383502960e-02
4.481761157512664795e-02
1.383271347731351852e-02
4.676751326769590378e-03
-4.882432147860527039e-02
3.982510417699813843e-03
-8.542061783373355865e-03
-1.587227173149585724e-02
-1.612075231969356537e-02
-3.343169018626213074e-02
1.876771636307239532e-02
5.291125923395156860e-02
6.515897065401077271e-02
-1.976332440972328186e-02
-6.865959148854017258e-03
4.726636782288551331e-02
-4.285135865211486816e-02
-2.781418524682521820e-02
-4.854454472661018372e-02
5.785707756876945496e-02
-5.629425402730703354e-03
3.074075095355510712e-02
-1.091595664620399475e-01
-1.288423896767199039e-03
-6.286624819040298462e-03
-1.883966266177594662e-03
3.140311315655708313e-02
9.622488915920257568e-02
2.046140655875205994e-02
6.178620830178260803e-02
-2.398564666509628296e-02
-3.487527370452880859e-02
4.685504361987113953e-02
-1.970924437046051025e-02
1.551520451903343201e-02
4.614850506186485291e-02
-6.133542861789464951e-03
-3.627700358629226685e-02
1.388460677117109299e-02
-1.259228400886058807e-02
1.964954845607280731e-02
1.800831966102123260e-02
-2.928347559645771980e-03
-1.755949296057224274e-02
-1.915661618113517761e-02
4.463702812790870667e-02
-2.281856350600719452e-02
-4.054654762148857117e-02
1.138619612902402878e-02
-2.133517153561115265e-02
3.702654317021369934e-02
1.056551709771156311e-01
-4.517908766865730286e-02
7.508955895900726318e-02
4.984376486390829086e-03
7.806800305843353271e-03
-1.201988570392131805e-02
-1.673642545938491821e-03
8.920859545469284058e-03
2.081835456192493439e-02
-2.015935257077217102e-02
-3.850770741701126099e-02
2.828076248988509178e-03
2.682764455676078796e-02
4.841284081339836121e-02
3.286377992480993271e-03
1.981120556592941284e-02
7.721919566392898560e-03
4.444862902164459229e-02
1.982259005308151245e-02
8.701620995998382568e-02
1.986502110958099365e-02
2.023588493466377258e-02
5.106731783598661423e-03
-2.621040679514408112e-02
-4.254598636180162430e-03
-9.912320412695407867e-03
3.865741193294525146e-02
-1.321057416498661041e-02
6.434500217437744141e-02
3.438743576407432556e-02
2.952712029218673706e-02
1.303638913668692112e-03
1.066969707608222961e-03
2.422842197120189667e-02
-3.001535870134830475e-02
-2.524185925722122192e-03
1.924563199281692505e-02
-1.271032541990280151e-02
4.269696772098541260e-03
-5.147609394043684006e-03
-1.533975917845964432e-02
1.670585386455059052e-02
-1.200811122544109821e-03
5.016484484076499939e-02
2.588360384106636047e-02
2.980501018464565277e-02
-2.104823291301727295e-02
-1.549613382667303085e-02
9.495107084512710571e-02
-1.393220294266939163e-02
5.803878419101238251e-03
1.082363259047269821e-02
-2.212307602167129517e-02
-3.258695825934410095e-02
2.718535950407385826e-03
-1.254555955529212952e-02
-1.153535209596157074e-02
1.993368845432996750e-03
-4.190629813820123672e-03
3.405742347240447998e-02
1.202544849365949631e-02
2.325369417667388916e-02
8.885125862434506416e-04
1.592074520885944366e-02
-3.974934294819831848e-02
